-0.0396189887854,-1.06212152039,-0.127854469949,0.698303553721,-0.417237823407,0.27794766578,-0.0943582083766,0.870679661808,0.157703935723,-0.713905321878,-0.562113316836,0.011621369709,-0.954678510415,-0.649809538704,-0.415353236927,-0.294421937482,0.287265410471,-0.844925254061,-0.153807231416,-0.832626651784,0.246937246797,0.0725692962472,-0.263786681323,-0.764844953328,-0.320245836797,0.20324846812,-0.799413359381,-0.0310646661287,0.536462907934,-0.578009504259,-0.191155791924,0.137806957485,0.447351703284,-0.566757593863,0.122694322344,-0.639232283739,0.297470432625,-1.00343702217,0.894632702524
-0.0562019010211,-1.08895297479,-0.126860614499,0.809296947781,-0.376587241207,0.317523129134,-0.0567385823431,0.885164190502,0.199762132708,-0.673141659463,-0.539831879011,-0.056408141863,-0.955867839144,-0.677874713006,-0.391809148613,-0.53034520161,0.193737340326,-0.985188328199,-0.275750354055,-0.908348531823,0.183656020029,-0.0620591453975,-0.346437671035,-0.882514341145,-0.37248599274,0.139520232012,-0.830767197433,-0.229620771564,0.492869766113,-0.715195652037,-0.342846669908,0.103330619658,0.430376648674,-0.591989786056,0.115195100819,-0.644779289886,0.284263246721,-1.00471847759,0.888204103986
-0.0502692857836,-1.10788449361,-0.124273449368,0.839322842772,-0.366571309703,0.330042631785,-0.0457398871052,0.892115353925,0.228465032267,-0.65504193242,-0.527937423567,-0.125459747645,-0.950706148256,-0.702382408272,-0.370702705262,-0.597841260353,0.162657545546,-1.0118497233,-0.299158923729,-0.937591043648,0.156691916008,-0.0800918382958,-0.385056891859,-0.91754290744,-0.359730733221,0.114721428284,-0.840264603232,-0.26507790743,0.511046179702,-0.747571461675,-0.402155177049,0.116736298988,0.444488157189,-0.597941318687,0.116557496981,-0.642201213734,0.280804378914,-1.00282229765,0.886051727646
-0.0404600455185,-1.12674563701,-0.123625551272,0.850734691677,-0.363811112848,0.338813557904,-0.0422938119074,0.898209504252,0.254778028812,-0.641534193944,-0.518996053656,-0.193927510029,-0.943603714211,-0.726207620518,-0.351427143421,-0.626744328521,0.146218216745,-1.01227934278,-0.299151729833,-0.958427398646,0.138995640208,-0.0752997135525,-0.415789581516,-0.935592545811,-0.334380840445,0.0995404395513,-0.846329261347,-0.269590255475,0.540755725107,-0.759675851449,-0.444448058653,0.141591180115,0.464240729878,-0.599803872578,0.119970695376,-0.637928409628,0.27938130906,-1.00083143436,0.885095077538
-0.0292201968786,-1.14666927307,-0.124594797451,0.856544395231,-0.363412289758,0.34767850726,-0.0413990839421,0.905267478934,0.281416983015,-0.628103921138,-0.511141519567,-0.2624764555,-0.935145760027,-0.74989702815,-0.333459228637,-0.642152903611,0.135007207604,-1.00326242915,-0.290155011681,-0.978487536286,0.124987165547,-0.0651622753339,-0.445377716487,-0.949608612821,-0.306308547456,0.0881707960441,-0.852418217973,-0.267138545391,0.573211656295,-0.767565665527,-0.483759107142,0.171238879147,0.485075900981,-0.600902461758,0.124037666493,-0.633482936271,0.278302686402,-0.999349744345,0.884659432843
-0.0170952169306,-1.16794091395,-0.12684754892,0.860263454221,-0.364043426853,0.357526851076,-0.0417212082979,0.913785071102,0.309253994625,-0.613064533286,-0.503704426584,-0.331591346955,-0.925521091914,-0.773627315962,-0.316544469405,-0.652087723278,0.125950145099,-0.990061398663,-0.276668633299,-1.00029764016,0.112833313592,-0.0537301907254,-0.475365693225,-0.962708666821,-0.277804425617,0.0791843374119,-0.859315281577,-0.262997928322,0.606549317914,-0.774821122118,-0.523273682467,0.204256628108,0.506007588538,-0.601960194666,0.128437674343,-0.629147739684,0.277204721651,-0.998435473355,0.884583269187
-0.00421789927698,-1.19065496316,-0.130168944938,0.862953939417,-0.365293864931,0.36859793958,-0.0429178123989,0.923895130897,0.338652838186,-0.595589922393,-0.496372849405,-0.401645991726,-0.914807323019,-0.797476821599,-0.300536054003,-0.659661705006,0.117818475612,-0.97465532111,-0.26036261132,-1.0248999913,0.101807233058,-0.0419618000199,-0.506111022448,-0.975690592109,-0.24940227563,0.0721938290265,-0.867190625628,-0.258350712192,0.640404819456,-0.782262973777,-0.563782002418,0.240362245964,0.526831670377,-0.603048676771,0.133121052396,-0.624896220706,0.276059903599,-0.998028523389,0.884837207493
0.00939228740558,-1.21485214088,-0.134424418709,0.864948371064,-0.367029380244,0.380967159059,-0.0449460470257,0.935621237839,0.369807083412,-0.575157389377,-0.488959189974,-0.472965977739,-0.903039059908,-0.821492580522,-0.285333538069,-0.666175653103,0.11007245267,-0.957819905238,-0.241868044394,-1.05279650176,0.0915952147233,-0.0300640421482,-0.537691987995,-0.988774513823,-0.221208878391,0.0670829622068,-0.876069502945,-0.25345565121,0.674748518419,-0.790091282237,-0.605530766757,0.279534876909,0.547519912605,-0.604095892954,0.138103050774,-0.620645842599,0.274913350644,-0.998056074161,0.885423923566
0.0237502804685,-1.2405562732,-0.139520929106,0.86633845785,-0.369208054031,0.394666394665,-0.0478662773024,0.948950193773,0.402843781245,-0.551349813977,-0.48131953048,-0.545855725064,-0.89023344828,-0.845710713696,-0.270856563019,-0.672176734494,0.102462025455,-0.939831509256,-0.221383527733,-1.08427979228,0.0820569898778,-0.0180655585744,-0.57012614068,-1.0020378158,-0.19323101799,0.0638148262518,-0.885946195503,-0.248381043483,0.709615353455,-0.79837913019,-0.648651515743,0.321816196345,0.568078869269,-0.605016542702,0.143409341225,-0.616320540512,0.273814371565,-0.998454105306,0.8863515346
0.0388809895549,-1.26778551701,-0.145382651107,0.867128595532,-0.3718219244,0.409716912959,-0.0517813301137,0.96385434875,0.437859862319,-0.523778232935,-0.473322303218,-0.620611483217,-0.876400448717,-0.870163144062,-0.257032297161,-0.677877305856,0.0948683415883,-0.920743279704,-0.198913455333,-1.11956853815,0.0731309798959,-0.00595711176148,-0.603421696645,-1.01552480188,-0.165455513912,0.0623837885483,-0.896811330234,-0.243172992257,0.745042501932,-0.807183978428,-0.693257292422,0.367265813078,0.588517044942,-0.605737648039,0.149063908153,-0.611859567227,0.272803269018,-0.999167593424,0.88762782116
0.0548102250072,-1.29655614362,-0.151937141804,0.867288255226,-0.374876880337,0.426139537725,-0.0568154519932,0.98029913271,0.474936024327,-0.492052391113,-0.464835740869,-0.697529187329,-0.861547035184,-0.894879880698,-0.24378892198,-0.683331615111,0.0872371376755,-0.900500854677,-0.174368325561,-1.15886744597,0.0647947744063,0.00627483996792,-0.637588764566,-1.02927419271,-0.137868003705,0.062803951916,-0.908658095596,-0.23789345901,0.781054595032,-0.816571548757,-0.739462736443,0.415950490836,0.608837104739,-0.606197572854,0.155088176711,-0.607213762162,0.271912259418,-1.00014666329,0.889259981594
0.0715603173743,-1.32688391594,-0.159107162567,0.866771222445,-0.378385236024,0.443958559027,-0.0631055785121,0.998245980635,0.51414201901,-0.455773247522,-0.455723381173,-0.77691007594,-0.845679138086,-0.919889824614,-0.231051878767,-0.688511716314,0.0795506836303,-0.87899178766,-0.147608078292,-1.20239516979,0.0570486499554,0.0186401319878,-0.672641536611,-1.04332617561,-0.110457040643,0.0651072044715,-0.921483591984,-0.232629685779,0.817659172287,-0.826620811065,-0.787387287852,0.467939500719,0.629033549114,-0.606340656686,0.16150234954,-0.602340792607,0.271168583386,-1.00134299313,0.891255433029
0.0891472494727,-1.35878459655,-0.166805118524,0.865523258034,-0.382362814768,0.463203763091,-0.0707963967492,1.0176537996,0.555538189505,-0.414537603719,-0.445843540297,-0.859064785591,-0.828802859629,-0.945221083177,-0.218741341107,-0.693339799051,0.0718166009051,-0.856066569088,-0.11846111375,-1.25039763181,0.0499091051344,0.0311424805825,-0.708598816613,-1.05772458735,-0.0832149630554,0.069343988227,-0.935289227762,-0.227497784553,0.854844018605,-0.837425173287,-0.837154765558,0.523299674918,0.649091432229,-0.606113029906,0.168326555414,-0.597201986035,0.270596782716,-1.00270719247,0.893622462856
0.107578341676,-1.39227408369,-0.174928532639,0.863485637149,-0.386827708868,0.483911780401,-0.0800362794766,1.03848002874,0.599175030916,-0.367951516205,-0.435051242083,-0.944315715714,-0.810925491317,-0.970901113799,-0.206770182293,-0.697701837884,0.0640641163828,-0.831547775665,-0.0867333196595,-1.30315392881,0.0434067683859,0.0437779778919,-0.745484491076,-1.0725180651,-0.0561382031826,0.0755849950556,-0.950081039835,-0.22264496604,0.892574776004,-0.84909264708,-0.888891786405,0.582088375741,0.668985273071,-0.605460509412,0.175581332385,-0.591760936491,0.270219662574,-1.00418706657,0.896370490657
0.12685029986,-1.42736832607,-0.183355847109,0.860597355869,-0.391799663281,0.506127019595,-0.0909730034654,1.06068166316,0.645091324232,-0.315651894878,-0.423202179308,-1.03299689117,-0.792056444905,-0.996956785953,-0.195042111952,-0.701454064443,0.0563434084649,-0.805235133837,-0.0522139598801,-1.36097740799,0.0375860776584,0.0565335445721,-0.783328213202,-1.08776101743,-0.0292275451527,0.0839232497918,-0.965870094386,-0.21825068512,0.930792795723,-0.861745005107,-0.942725043748,0.644343512928,0.688678155355,-0.604328441312,0.183287435887,-0.585983618733,0.270058022621,-1.00572665332,0.899509927316
0.146947780892,-1.46408303586,-0.191942359823,0.856797117748,-0.39729967355,0.529902112749,-0.103748870169,1.08421636729,0.693310819843,-0.257336633933,-0.410158741503,-1.12545006005,-0.772208026748,-1.02341437074,-0.183449890335,-0.704428098762,0.048725840346,-0.776910670584,-0.0146822282657,-1.42421221297,0.0325053849582,0.0693853215144,-0.822166271842,-1.10351448098,-0.00248830250422,0.0944762853092,-0.982672949255,-0.214525928991,0.969413641387,-0.875515294195,-0.998776894582,0.710069978381,0.70812125838,-0.602663331904,0.191465014058,-0.579839818317,0.270129249943,-1.00726607003,0.903051634064
0.167842842267,-1.50243316408,-0.200516461779,0.85202553518,-0.403349639159,0.555297598689,-0.118495203888,1.10904370583,0.743837139815,-0.192803353356,-0.395798261568,-1.22201530526,-0.751395891881,-1.05029944119,-0.171873702016,-0.706438231019,0.0413037213291,-0.746346705389,0.0260828871522,-1.49322432593,0.0282366089376,0.0822972815241,-0.862042528266,-1.11984666672,0.0240697884551,0.107388053665,-1.00051209953,-0.211709480451,1.00832688825,-0.890542862488,-1.05715856574,0.779222192976,0.727254191934,-0.600416263453,0.200132160258,-0.573305821441,0.27044478047,-1.00874235926,0.907005958354
0.189495780683,-1.54243208475,-0.208876662782,0.846227632599,-0.40997202289,0.582380394876,-0.135326445067,1.13512648945,0.796646424685,-0.121995403453,-0.380023486095,-1.32301411208,-0.729638959424,-1.07763666202,-0.160179939551,-0.707293322922,0.0341885358095,-0.713318868012,0.0702872309994,-1.56838537406,0.0248636922134,0.0952205241269,-0.903009234698,-1.13683285599,0.0504332659347,0.122830013942,-1.019416281,-0.210059823211,1.04739803952,-0.906965035488,-1.11796035797,0.851683147707,0.746006603177,-0.597548157136,0.209302845918,-0.566368355735,0.271006411395,-1.01009160641,0.911381314625
0.211857888565,-1.58409045067,-0.216790220012,0.839355485682,-0.417189520899,0.611220440387,-0.154334221375,1.16243225372,0.851677295088,-0.0450511784927,-0.362774866166,-1.42872285733,-0.706958562578,-1.10544945709,-0.148220832654,-0.706815016867,0.0275067274153,-0.677625834844,0.118098845559,-1.6500471461,0.0224791589132,0.108093860409,-0.94512747129,-1.15455420911,0.0765866075948,0.141000535108,-1.0394204579,-0.209841533338,1.08647343221,-0.924904835596,-1.18123858999,0.927241492625,0.764301541006,-0.594036808672,0.218984298357,-0.559029668224,0.271801557011,-1.01125255512,0.916182313067
0.234876471649,-1.62741474387,-0.22399448075,0.831370623141,-0.425024767463,0.641884782727,-0.17558180334,1.19093496968,0.908818032562,0.0376506872824,-0.344043621019,-1.53933544816,-0.683376684027,-1.13375956771,-0.135835541712,-0.704862678613,0.0213923880233,-0.639116483396,0.169617340669,-1.73850505149,0.0211781883752,0.120846338628,-0.988466873179,-1.17309503728,0.102515234976,0.162121409633,-1.06056528586,-0.211305795551,1.12538877798,-0.944454872925,-1.24699983462,1.00556981725,0.782060912405,-0.589885219969,0.229174035196,-0.551313333291,0.272797828597,-1.0121717092,0.921407534587
0.258501979768,-1.67240564873,-0.230202189975,0.822245717896,-0.433500070569,0.674428448297,-0.199099138117,1.22061721639,0.967891633773,0.125460971448,-0.323883765899,-1.65491578524,-0.658913334567,-1.16258655328,-0.122853447749,-0.701363313005,0.0159767624429,-0.597723243556,0.224836589534,-1.83395000506,0.02104997124,0.133402185731,-1.03310431065,-1.19253824166,0.128210073435,0.186430032105,-1.08289584777,-0.214666298694,1.16398132569,-0.965658848651,-1.31518430154,1.08620888451,0.79921295403,-0.585130090447,0.239856986805,-0.543269912543,0.273937783213,-1.01280945575,0.927047205506
0.28269631783,-1.71905650222,-0.235111793709,0.811965226627,-0.442637078752,0.708881858677,-0.224878196414,1.25147316175,1.02864060668,0.217456401258,-0.302420660311,-1.77534409668,-0.633583468606,-1.19194732706,-0.109100293604,-0.696341660406,0.0113753843912,-0.553497523066,0.283605262651,-1.9364108223,0.0221667757274,0.145688138988,-1.07912128121,-1.2129590049,0.153673518005,0.214165906478,-1.10645953978,-0.220074025348,1.20210452682,-0.988493805486,-1.38565176161,1.16856345213,0.815700964686,-0.579848570225,0.251003367705,-0.534981053895,0.275135220091,-1.01314615273,0.933081208283
0.307440556446,-1.76735216013,-0.238423000236,0.800525080179,-0.452456122913,0.745235494694,-0.252867900914,1.28351264051,1.09071485794,0.312472460617,-0.279853431098,-1.90026558691,-0.60739419723,-1.22185583672,-0.0944074312934,-0.689942749481,0.00767471462262,-0.506639884982,0.34559336304,-2.04569327478,0.0245720511409,0.157642335542,-1.1265999915,-1.23441739938,0.178926107257,0.245550899839,-1.13130314618,-0.227596527114,1.23964282387,-1.01285765188,-1.45817449361,1.25191451468,0.831491779977,-0.574160870858,0.26256807435,-0.526560276608,0.276274749616,-1.0131866271,0.939477996767
0.332739806362,-1.81726858006,-0.239856542666,0.787932163699,-0.462974838622,0.783423931433,-0.282967937464,1.31676618749,1.1536671758,0.409174490302,-0.25644909819,-2.02905382428,-0.580343260318,-1.25232296615,-0.0786236654475,-0.682438145485,0.00492091661084,-0.457515716659,0.410275339685,-2.16132676921,0.028269740148,0.169223064592,-1.17561840277,-1.25695115986,0.204012647142,0.280764201529,-1.1574693489,-0.23720781485,1.27652337751,-1.03856656122,-1.53244142423,1.33544984478,0.846581999827,-0.568226555331,0.27449224558,-0.518148889478,0.27721616082,-1.0129614497,0.946194958074
0.358623401988,-1.86877322603,-0.239175571384,0.774204768334,-0.474205708564,0.823312816716,-0.315021737244,1.35129003032,1.21696073932,0.506158752074,-0.23252745492,-2.16080251034,-0.552419558701,-1.28335664889,-0.0616282201213,-0.674209747685,0.00311338794522,-0.40664831933,0.476939344122,-2.28253319383,0.033217317828,0.180415215174,-1.22624477193,-1.28057014699,0.229006239301,0.319915002304,-1.18499308471,-0.248792914608,1.31272184481,-1.06536488607,-1.60807534203,1.41831019545,0.861000205816,-0.562233600968,0.28670715048,-0.509906465922,0.27780412048,-1.01252392803,0.953180499817
0.385139808833,-1.92182611284,-0.236205059177,0.759374980292,-0.486152503692,0.864692972789,-0.348810675665,1.38716909484,1.27999107347,0.602065732961,-0.208437612492,-2.29435561711,-0.523606003284,-1.31496208881,-0.0433425935158,-0.665711375909,0.00220467200597,-0.354686459852,0.54472660593,-2.4082319639,0.039324571731,0.191232575926,-1.27853231829,-1.30525375621,0.254008896981,0.36301769384,-1.21389820469,-0.262166732071,1.34826087655,-1.09294659236,-1.6846612812,1.49964414982,0.874804430845,-0.556381439848,0.299139866166,-0.501996908114,0.277882100412,-1.01194291644,0.960377670954
0.41234730224,-1.97638108024,-0.230845642799,0.743492967244,-0.498806190693,0.907284759835,-0.384053001102,1.42451570174,1.34212114375,0.695683787952,-0.184529249343,-2.42837719462,-0.493884241114,-1.34714194374,-0.0237389426363,-0.657416061004,0.00210672352862,-0.302350941556,0.612696207615,-2.53708879148,0.0464588086716,0.201715287911,-1.33251454084,-1.33095173837,0.279148187224,0.409974902118,-1.24419477738,-0.277102090771,1.38320219598,-1.1209834992,-1.76178051706,1.57866230172,0.888075574983,-0.550861301869,0.311719558283,-0.494572754583,0.277307801136,-1.01129284722,0.967728616809
0.440302648629,-2.03238684852,-0.223079564282,0.726631800604,-0.512141404841,0.95075317405,-0.420410895469,1.4634623931,1.40272426497,0.786024361919,-0.161123320131,-2.56145120992,-0.463240317645,-1.37989637143,-0.00284332871905,-0.649761960576,0.00270188067726,-0.250371212524,0.679902656946,-2.66760446226,0.0544555064491,0.211923242244,-1.38820148165,-1.35758794313,0.30457033781,0.460572336579,-1.27587717541,-0.293359161383,1.41763486764,-1.14915370367,-1.83904293285,1.6546821575,0.900908598527,-0.545838255587,0.32438290747,-0.487761203659,0.275966572041,-1.0106432411,0.975178863323
0.469050232269,-2.08978756507,-0.212968287454,0.708890647751,-0.526114682685,0.994730993504,-0.457506979641,1.50414910587,1.46122707171,0.872359123189,-0.138487440733,-2.69219315958,-0.431670239973,-1.41322292824,0.0192666111447,-0.643109513828,0.00385595425699,-0.199425281612,0.745470453041,-2.7982285204,0.0631321213723,0.221927337357,-1.44557702444,-1.38506582355,0.330431064551,0.514486640629,-1.30892290804,-0.310709236507,1.45166286744,-1.17716435366,-1.91611158963,1.7271582529,0.913403636446,-0.541438758259,0.337077498156,-0.481654847108,0.273779902983,-1.0100499657,0.982680485764
0.498613413101,-2.14852279777,-0.200643132787,0.690394437965,-0.540665175819,1.03884516651,-0.494948446561,1.54670686733,1.51714503228,0.954220219925,-0.11681997909,-2.81935259944,-0.399184653234,-1.44711637875,0.0424687600239,-0.637717401714,0.00543084936073,-0.150093602103,0.808652401811,-2.92747637568,0.0723023140063,0.231800783868,-1.50459723588,-1.41327441152,0.356885694033,0.571304368467,-1.34329209384,-0.328949114546,1.48539433097,-1.20476569624,-1.99271637746,1.79569588318,0.925658657448,-0.537745579561,0.349762679129,-0.476308537561,0.270707721986,-1.00954973686,0.990193618292
0.528988918797,-2.20852713088,-0.186291300071,0.671289305643,-0.555717767919,1.08274140475,-0.532354423859,1.59124134877,1.57010550393,1.031372999,-0.0962445177311,-2.94188981851,-0.365812197874,-1.48156848107,0.0666067922683,-0.633738139996,0.00729489671763,-0.102832080992,0.868864680981,-3.05402925841,0.0817883003061,0.241612098061,-1.56518979546,-1.44209382432,0.38407994699,0.63054813363,-1.37892750829,-0.347906168819,1.51893355753,-1.2317564438,-2.06865698409,1.86005006289,0.937764372042,-0.534799642018,0.362408187085,-0.471741927535,0.266745146494,-1.00915824632,0.99768630464
0.56014428892,-2.26972959905,-0.170139814181,0.651734559203,-0.571187814342,1.12610331849,-0.569381290026,1.63781951847,1.61985677357,1.10377355322,-0.0768138543981,-3.05901823187,-0.331601386978,-1.51656777278,0.0915018404016,-0.631228865718,0.00933011776789,-0.05796382182,0.925698314865,-3.17680319374,0.0914300029201,0.251420490936,-1.62725462325,-1.47139990529,0.412142231386,0.691705416153,-1.41575522262,-0.367436716608,1.55237573253,-1.25798258881,-2.14379770458,1.9201131837,0.949801287223,-0.53260665075,0.374991365051,-0.467945852051,0.261915655361,-1.00887136674,1.00513313379
0.592017994409,-2.33205316669,-0.152439492548,0.631892914664,-0.586986411501,1.16866446872,-0.605741632504,1.68646151491,1.66626453955,1.17152201271,-0.0585209668696,-3.17021295666,-0.296620990554,-1.55209934128,0.116964045522,-0.630170621508,0.0114365137736,-0.0156855552907,0.978911429928,-3.29498219774,0.101090678718,0.261273528579,-1.69066580574,-1.50106804125,0.441177769479,0.754256189945,-1.45368589329,-0.387421008356,1.58580376595,-1.28333243163,-2.21805739722,1.97589540684,0.961838380659,-0.531145849714,0.38749395655,-0.46489029139,0.256262995955,-1.00866841156,1.01251330091
0.624521749918,-2.39541438036,-0.133450364023,0.611920956937,-0.603025209711,1.21021351873,-0.641214634436,1.73713834119,1.7092991158,1.23481888432,-0.0413137071892,-3.27519248507,-0.260959001653,-1.58814455119,0.142802943317,-0.63048993595,0.0135339265051,0.023916587658,1.02840870562,-3.40801884261,0.110659400458,0.271206482729,-1.75527480743,-1.53097638783,0.471264542842,0.817696763953,-1.49261672866,-0.407757526135,1.61928657576,-1.30773015157,-2.29139753368,2.02750153449,0.973932805367,-0.530378676878,0.399899272505,-0.462532024637,0.249843678932,-1.00851639761,1.01980868231
0.657544533933,-2.45972324808,-0.113429342967,0.591961367059,-0.6192201437,1.2505937934,-0.675647920798,1.78977466891,1.74901719955,1.29392811917,-0.0251102357273,-3.37388321202,-0.22472035067,-1.62468072373,0.168836093239,-0.632078500223,0.0155621090365,0.0608468528984,1.07421431484,-3.51561029861,0.120051093418,0.281242711404,-1.82091478087,-1.56100869784,0.502450910327,0.881558451878,-1.53243406808,-0.428358151446,1.65287832202,-1.33112940039,-2.36381042982,2.07510737271,0.986130172522,-0.530255986778,0.412190183556,-0.460820851403,0.2427210885,-1.00837448422,1.02700231367
0.69095782213,-2.52488335619,-0.0926204962145,0.572137721035,-0.63549386379,1.28969897442,-0.708952534509,1.84425527013,1.78554167073,1.34914800333,-0.00981297994869,-3.46637629176,-0.188023636777,-1.6616807995,0.194895708544,-0.634808964718,0.0174795489776,0.0951788077398,1.11644332846,-3.61765962875,0.129204869432,0.291394558322,-1.88740562476,-1.59105680455,0.534754752325,0.945420636496,-1.57301640375,-0.449144755712,1.68661830512,-1.35350761534,-2.43530886097,2.11893772412,0.998465138188,-0.530723382241,0.424348052464,-0.459704013706,0.234961461884,-1.00819805678,1.03407743149
0.724621513619,-2.59079221902,-0.0712479342263,0.552551957121,-0.651776966416,1.32746657909,-0.741093463872,1.90043340464,1.81904203293,1.40078950744,0.00468015724752,-3.55288417409,-0.150997226926,-1.69911304467,0.220833280172,-0.63854653861,0.0192614605074,0.127035707593,1.15527489619,-3.71423125614,0.13808130345,0.301664470942,-1.95455934898,-1.62102268296,0.568164017068,1.00891845361,-1.6142376046,-0.470047131349,1.72053138009,-1.37486123414,-2.50591758686,2.15924730986,1.01096215626,-0.53172478818,0.436352485263,-0.459128968056,0.226631485659,-1.00794217351,1.04101705798
0.758390024611,-2.65734185568,-0.0495111655975,0.533284116553,-0.668008294405,1.36387053624,-0.772078117637,1.95813971475,1.84971713671,1.4491610711,0.0184677690154,-3.63370148893,-0.113775101221,-1.73694086965,0.246522336213,-0.643156962637,0.0208972731939,0.156573454548,1.19092903187,-3.80550729883,0.146659162931,0.312046205566,-2.02218530798,-1.65081996009,0.602638531725,1.0717457494,-1.65597008456,-0.491001903168,1.75462879782,-1.39520174064,-2.5756668711,2.19630521559,1.02363633672,-0.533204671463,0.448181665868,-0.459044900983,0.217797044162,-1.00756426876,1.0478040082
0.792118069252,-2.72441958641,-0.0275826331849,0.514393731699,-0.684134621912,1.39891377521,-0.801944650059,2.01719060216,1.87778097734,1.49455859142,0.0316399122655,-3.70917255605,-0.0764927911602,-1.77512281716,0.27185957059,-0.648511701462,0.022387892083,0.183966586448,1.22364772748,-3.89174891208,0.154931973309,0.322526080445,-2.09009494288,-1.6803747753,0.638112887961,1.13365421701,-1.69808769322,-0.511952020847,1.78890939401,-1.4145523902,-2.64458783188,2.23038292647,1.0364943799,-0.535109347895,0.459813021718,-0.459403417801,0.208522654677,-1.00702611337,1.05442116614
0.82566574425,-2.79190903382,-0.00560707653042,0.495922213189,-0.700110002059,1.4326213878,-0.830751384948,2.07739550085,1.90345173178,1.53725940892,0.0442755404781,-3.77966606198,-0.0392836806523,-1.8136127525,0.296764627921,-0.654491138748,0.0237429600353,0.20939729203,1.25368040138,-3.97326456073,0.16290469367,0.333084266947,-2.15810579231,-1.70962596895,0.67450014633,1.19444972163,-1.7404681742,-0.532846512247,1.82336103806,-1.43294547212,-2.71270934568,2.2617456647,1.04953556445,-0.537387734043,0.471224007534,-0.460158760084,0.198871230441,-1.00629509347,1.06085188915
0.85890266271,-2.85969130105,0.0162976702012,0.477895688498,-0.715894983313,1.46503465144,-0.85856798638,2.13856281379,1.92694380138,1.57751921815,0.0564417489819,-3.84555639645,-0.00227584480802,-1.85236026002,0.321178854213,-0.660986376554,0.024978303687,0.233047200506,1.28127327576,-4.05038555257,0.170590684379,0.343696103188,-2.22604465765,-1.73852466217,0.711696058103,1.25398680187,-1.7829951134,-0.553640290055,1.85796224696,-1.4504200019,-2.78005619146,2.29064654914,1.06275276488,-0.53999178531,0.48239285582,-0.461267798189,0.188903944443,-1.00534490036,1.06708043406
0.891711016684,-2.92764628466,0.0380388367812,0.460327892618,-0.731455825888,1.4962060145,-0.885468572162,2.20050451789,1.94846241976,1.61557101191,0.0681942118206,-3.90721063471,0.0344104886037,-1.89131122547,0.345063319469,-0.667900062701,0.0261136874847,0.255091570788,1.30666208472,-4.12344820724,0.178009071463,0.354333399385,-2.29374991311,-1.76703335329,0.749583494652,1.31216221681,-1.82555936656,-0.574293905166,1.89268387094,-1.46701977177,-2.8466481371,2.31732302457,1.07613347215,-0.542876760309,0.493299203949,-0.462689945382,0.178680079397,-1.00415573797,1.07309233601
0.923987565908,-2.99565406809,0.0595461959848,0.443222857113,-0.746763788307,1.52619502831,-0.911526679022,2.26303957176,1.96820031563,1.65162535986,0.0795783009866,-3.96498001067,0.0706648420471,-1.93040856641,0.368396393018,-0.67514653799,0.0271709431452,0.275695460696,1.33006746194,-4.1927815856,0.18518255126,0.364965693824,-2.3610730264,-1.79512468578,0.788036803738,1.36890823482,-1.86806000439,-0.594773212381,1.92749076829,-1.48279171159,-2.91249970614,2.34199501958,1.08966079098,-0.546001381365,0.50392455742,-0.464387066573,0.168256826539,-1.00271415569,1.07887470355
0.955644639643,-3.06359633498,0.0807691777908,0.426577262581,-0.76179451176,1.55506514468,-0.936811837356,2.32599631436,1.98633593547,1.68587150086,0.0906305144134,-4.01919479014,0.106387791826,-1.96959306405,0.391171111741,-0.682651509521,0.0281724925287,0.29501146147,1.35169238841,-4.25869959537,0.192135633533,0.375561417212,-2.42787939854,-1.82278004179,0.826925868085,1.42418616672,-1.91040484224,-0.615048956682,1.96234340287,-1.49778452589,-2.97762040908,2.36486435329,1.10331439041,-0.54932792049,0.514252584233,-0.46632340845,0.157689039702,-1.00101260855,1.08441641741
0.986610296198,-3.13135774241,0.101673871998,0.410382404741,-0.776527504132,1.58288126747,-0.961387457027,2.38921404886,2.0030327927,1.71847887979,0.101379964866,-4.07016161329,0.141491737641,-2.00880424795,0.413392532442,-0.690351402728,0.0291402449956,0.31317861876,1.37172115587,-4.32149637228,0.198893291072,0.38608893005,-2.4940486497,-1.8499880935,0.86611970963,1.47798046562,-1.95251063279,-0.635096307903,1.99719931605,-1.5120475781,-3.04201526897,2.38611499374,1.1170713888,-0.55282222121,0.524269257151,-0.468465552967,0.147028969975,-0.999048835584,1.08970823611
1.01682781304,-3.19882719959,0.122240108291,0.394625779141,-0.790945712476,1.60970793721,-0.985309726743,2.45254398813,2.01843958821,1.74959888014,0.111849782535,-4.11816256135,0.175901216491,-2.04798128861,0.435075209203,-0.698192509399,0.0300948268304,0.330322213552,1.39031939463,-4.38144400792,0.205479966508,0.396517408941,-2.55947447712,-1.87674341247,0.905489549973,1.53029356411,-1.99430299937,-0.654894376074,2.0320144425,-1.52562999498,-3.10568551242,2.40591385772,1.13090715964,-0.556453660456,0.533962871785,-0.470782385576,0.136326009542,-0.99682513313,1.09474282031
1.04625468535,-3.26589900791,0.142458742681,0.379292320321,-0.805035167907,1.63560803253,-1.0086272604,2.51584971166,2.03269082711,1.77936659317,0.122058356708,-4.16345537769,0.209552841932,-2.08706385936,0.456240889647,-0.706130022891,0.0310550886314,0.346554134927,1.40763480812,-4.43879188853,0.211918879807,0.406817570169,-2.62406420015,-1.90304520357,0.944911295222,1.58114150603,-2.0357161798,-0.674425735827,2.06674425365,-1.53857996463,-3.16862933187,2.42441192082,1.14479604981,-0.560195054889,0.543323971937,-0.473245067205,0.125626468587,-0.994347585283,1.09951469179
1.07486129937,-3.3324738307,0.162329227744,0.364365345442,-0.818784686789,1.66064188267,-1.03138126646,2.57900725526,2.04590772692,1.80790252798,0.132020389637,-4.20627442325,0.242394946085,-2.1259929374,0.47691648407,-0.714127030508,0.0320378338482,0.361973633618,1.42379834203,-4.49376708884,0.218231579573,0.41696223014,-2.68773809042,-1.92889620024,0.984267457706,1.63055035199,-2.07669263955,-0.693675980863,2.10134472474,-1.55094420191,-3.23084265321,2.44174547387,1.15871200621,-0.564022518274,0.552345212201,-0.475827000642,0.114973401399,-0.991625299012,1.1040201434
1.10262942458,-3.39845947355,0.1818575032,0.349827255662,-0.832185614261,1.68486669974,-1.05360606081,2.64190493051,2.0581992721,1.83531421022,0.141747764348,-4.24683206565,0.274386994879,-2.16471152172,0.497132329688,-0.722153514823,0.0330577148919,0.376668296735,1.43892558816,-4.54657541674,0.22443768542,0.426926711149,-2.75042856656,-1.95430173454,1.02344855724,1.67855329137,-2.11718260077,-0.712633321625,2.13577312979,-1.56276755615,-3.29231986469,2.45803741511,1.17262911049,-0.567915278781,0.561021183658,-0.478503785083,0.104406489981,-0.988669678475,1.10825711549
1.12955064249,-3.46377146814,0.201054213252,0.335660045617,-0.845231599056,1.70833625412,-1.07532978438,2.70444294905,2.06966331558,1.86169764461,0.151250243219,-4.28532029257,0.305498838771,-2.20316525385,0.516920748962,-0.730185400253,0.0341272498559,0.390715127537,1.45311828216,-4.59740282409,0.230554775055,0.436689107055,-2.81207931518,-1.97926897861,1.06235406235,1.72518836985,-2.15714352342,-0.731288232374,2.16998867451,-1.57409273798,-3.35305447943,2.47339850761,1.18652202453,-0.571855466425,0.569348223135,-0.481253155779,0.0939619869038,-0.985493761676,1.11222505163
1.15562480108,-3.52833346223,0.219933236547,0.321845665162,-0.857918391312,1.73110073046,-1.09657522186,2.7665329104,2.08038766326,1.88713863434,0.160536020521,-4.32191240861,0.335709852633,-2.24130293357,0.536314885192,-0.738203668382,0.0352569209309,0.404181649282,1.46646579972,-4.64641698999,0.236598377045,0.446230427073,-2.8726443836,-2.00380634364,1.10089293973,1.7704967352,-2.19653956474,-0.749633148602,2.20395298101,-1.58496014405,-3.41303971638,2.48792856117,1.20036635123,-0.575827881074,0.577324221016,-0.4840549083,0.0836727144174,-0.982111633267,1.1159247445
1.18085855855,-3.59207742686,0.238510502053,0.30836627026,-0.870243657417,1.75320671463,-1.11736064688,2.82809719812,2.09045110271,1.91171395983,0.169612153209,-4.35676472328,0.365008010161,-2.27907692771,0.555347789026,-0.746193555396,0.0364553237356,0.417126979381,1.47904658998,-4.69376894877,0.242582037459,0.45553463735,-2.93208727675,-2.02792301702,1.13898388077,1.81452130713,-2.23534103603,-0.767662212019,2.23763043997,-1.59540776095,-3.47226899303,2.5017175178,1.21413891692,-0.579819750842,0.584948437688,-0.486890808756,0.0735681137098,-0.978537919935,1.11935817985
1.20526405646,-3.65494369684,0.256803057558,0.295204392581,-0.882206807676,1.77469727252,-1.13770064196,2.8890683186,2.09992435489,1.93549242561,0.178484892569,-4.3900181732,0.393388930361,-2.31644347413,0.574051724795,-0.75414383727,0.0377293442625,0.429602840536,1.49092951015,-4.73959468237,0.24851743528,0.464588619869,-2.99038007982,-2.0516286158,1.17655527001,1.85730578661,-2.27352386967,-0.785371058151,2.27098844651,-1.60547113228,-3.53073632944,2.51484643396,1.22781798261,-0.583820489362,0.59222133457,-0.489744492433,0.0636743366331,-0.974787369241,1.12252838443
1.22885774404,-3.71688086488,0.27482835532,0.282343050824,-0.893808833893,1.79561209094,-1.15760685986,2.94938820859,2.10887093988,1.95853578588,0.187159936388,-4.42179984547,0.420854926461,-2.3533628864,0.592457664275,-0.762046202866,0.0390843465352,0.441654490206,1.50217504246,-4.78401662947,0.254414527239,0.473382067039,-3.04750261991,-2.07493293529,1.21354495366,1.89889393185,-2.31106910483,-0.802756640451,2.30399753638,-1.61518337484,-3.58843666729,2.52738836085,1.24138339189,-0.58782145888,0.599144422614,-0.492601353795,0.054014371628,-0.970874508738,1.12543928203
1.25165936082,-3.77784555122,0.292603720041,0.269765821146,-0.905052154893,1.81598765809,-1.17708870627,3.00900753086,2.11734795516,1.9808995609,0.195642618077,-4.45222438542,0.447414081067,-2.3897996671,0.610594936494,-0.769894711344,0.0405243592948,0.453321560116,1.51283638683,-4.82714508555,0.260281707642,0.48190732845,-3.10344167429,-2.09784577308,1.24989985837,1.93932904025,-2.34796239703,-0.819817084594,2.33663143797,-1.6245752324,-3.64536611015,2.53940912918,1.25481666348,-0.591815744399,0.605720128861,-0.49544843088,0.0446081957886,-0.966813379534,1.12809555995
1.27369107418,-3.83780207128,0.310145966805,0.257456879463,-0.915940468678,1.83585746686,-1.19615393425,3.06788497291,2.12540676973,2.00263375584,0.203938046107,-4.48139528303,0.473079365589,-2.42572253905,0.628491004622,-0.777685327984,0.0420522541088,0.464638804395,1.52296043036,-4.86907948326,0.266125972688,0.490159224101,-3.1581902282,-2.12037681131,1.28557550261,1.97865358707,-2.38419355453,-0.836551566883,2.36886705494,-1.63367515711,-3.70152209285,2.55096804736,1.2681010365,-0.595797942512,0.611951680269,-0.498274286949,0.0354729456486,-0.962617336773,1.13050254744
1.29497676157,-3.8967220234,0.327471139974,0.24540102482,-0.926478610454,1.85525222894,-1.21480914803,3.12598655939,2.13309363997,2.02378349308,0.212051204487,-4.50940603881,0.497867816851,-2.46110440474,0.646171344109,-0.785415531214,0.0436699103566,0.475636759395,1.53258859959,-4.90990955106,0.271953081958,0.498134836145,-3.2117467831,-2.14253554258,1.32053543543,2.0169089819,-2.41975610284,-0.852960211326,2.40068439303,-1.64250941076,-3.75690348855,2.56211852279,1.28122147617,-0.599763967171,0.617843003126,-0.501068891837,0.0266231001655,-0.958298908695,1.13266610647
1.31554142303,-3.95458381723,0.344594347798,0.233583690205,-0.93667241613,1.87420009093,-1.23306021869,3.18328498615,2.14045025444,2.04438956836,0.219987022788,-4.53634121431,0.521799779435,-2.4959222447,0.663659399693,-0.793083983138,0.0453783647676,0.486342320869,1.54175760423,-4.9497163543,0.277767712168,0.505833289036,-3.264114714,-2.16433122794,1.3547506306,2.05413541231,-2.45464687756,-0.869044000764,2.43206644326,-1.65110217892,-3.81151066223,2.57290861595,1.29416464724,-0.603710873448,0.623398636049,-0.503823505087,0.0180706703582,-0.953869705687,1.13459253474
1.33541070758,-4.01137216165,0.361529671258,0.221990945158,-0.946528591238,1.89272684647,-1.25091261796,3.23975898183,2.14751421504,2.06448893978,0.227750422531,-4.56227737481,0.544898218637,-2.53015696546,0.680976602267,-0.800690255869,0.0471779447303,0.496779245599,1.55050008241,-4.9885732259,0.283573600184,0.513255525974,-3.31530167418,-2.18577287731,1.38819885853,2.09037175121,-2.48886564548,-0.884804698266,2.46299903227,-1.65947569309,-3.86534547931,2.58338153606,1.30691886183,-0.607636699456,0.628623654467,-0.506530562472,0.00982539102846,-0.949340370996,1.13628848048
1.35461053704,-4.067077529,0.378290129164,0.210609492998,-0.956054585456,1.91085614035,-1.26837167787,3.29539270069,2.15431946201,2.08411515803,0.235346345328,-4.58728393256,0.567188105895,-2.56379320726,0.698142429798,-0.808234606254,0.0490683856133,0.506968585132,1.55884515793,-5.02654659534,0.289373673619,0.5204040878,-3.36531904502,-2.20686924514,1.42086405352,2.12565551004,-2.52241475297,-0.900244775866,2.49347064939,-1.66765035628,-3.91841127749,2.59357608649,1.3194740078,-0.61154032591,0.633523604632,-0.509183567141,0.00189491089648,-0.944720565245,1.13776086827
1.37316681119,-4.1216956099,0.394887684767,0.199426664477,-0.965258473059,1.92860966187,-1.28544278542,3.35017514965,2.16089664945,2.10329874505,0.242779767133,-4.61142389968,0.588695876165,-2.59681912135,0.715174499335,-0.815717792156,0.0510489329784,0.516929059282,1.56681891969,-5.06369672555,0.295170168392,0.527282899001,-3.41418142873,-2.22762883594,1.45273568975,2.16002282428,-2.55529880103,-0.915367348471,2.52347225836,-1.67564486896,-3.97071280935,2.60352706642,1.33182146295,-0.615421352368,0.63810444545,-0.511776986249,-0.00571502171102,-0.940018977641,1.13901683483
1.39110518012,-4.17522677089,0.41133328192,0.188430408934,-0.974148839777,1.94600732598,-1.30213152143,3.40409965094,2.16727347768,2.12206752749,0.250055702096,-4.63475455929,0.609448954888,-2.62922612555,0.732088679686,-0.823140924051,0.0531184309203,0.526677376752,1.57444483298,-5.10007836677,0.300964733276,0.533897064204,-3.46190618195,-2.24805991554,1.48380817632,2.19350846151,-2.58752434584,-0.930176111426,2.55299710062,-1.68347635289,-4.02225616259,2.61326563488,1.34395399957,-0.619279988882,0.64237249669,-0.51430615366,-0.0130003797871,-0.935243357562,1.140063674
1.40845087091,-4.22767552476,0.427636901285,0.177609283567,-0.982734676517,1.96306744134,-1.31844375274,3.45716334142,2.17347498804,2.1404469307,0.257179198853,-4.6573280634,0.629475350841,-2.66100864621,0.748899216503,-0.83050534641,0.055275397936,0.536228509682,1.58174409157,-5.13574133652,0.306758521963,0.540252677513,-3.50851298807,-2.26817052523,1.51408027887,2.22614584439,-2.61909962397,-0.944675280778,2.58204049572,-1.69116047079,-4.07304866387,2.62281964165,1.35586568335,-0.62311696168,0.646334392405,-0.51676717905,-0.0199586867637,-0.930400561047,1.14090878973
1.42522855793,-4.27905002123,0.443807629108,0.166952441178,-0.991025280408,1.97980686506,-1.33438568612,3.50936670849,2.17952382472,2.15846023799,0.26415533152,-4.67919196506,0.648803310255,-2.69216385339,0.76561886333,-0.837812543948,0.0575180917554,0.545595928353,1.58873591857,-5.17073103374,0.312552273472,0.546356646202,-3.55402346677,-2.2879684968,1.54355457324,2.25796708359,-2.65003430104,-0.958869535674,2.6105996434,-1.69871154091,-4.12309877151,2.6322139292,1.36755176985,-0.626933431412,0.649997038662,-0.519156863552,-0.026588854912,-0.925496607571,1.14155965632
1.44146226777,-4.32936156399,0.459853732808,0.156449616546,-0.999030163578,1.99624114426,-1.34996389163,3.56071316255,2.18544046823,2.17612881954,0.270989187233,-4.70038969216,0.667461027026,-2.72269139519,0.782259013741,-0.845064068521,0.059844564521,0.554791801559,1.59543782327,-5.20508889476,0.318346381862,0.552216529558,-3.59846081893,-2.30746146731,1.57223693469,2.28900301653,-2.68033924294,-0.97276396268,2.63867343082,-1.70614264534,-4.17241596154,2.64147060884,1.37900860094,-0.630730922562,0.653367574891,-0.521472621949,-0.0328910337136,-0.920536743256,1.14202378475
1.45717531134,-4.37862415817,0.475782739049,0.146091111564,-1.00675896991,2.0123846449,-1.36518530244,3.61120864494,2.19124344374,2.19347233467,0.277685851676,-4.72096096905,0.685476403547,-2.75259313632,0.798829830903,-0.852261482997,0.0622527096039,0.563827167581,1.60186582023,-5.23885279782,0.324140956328,0.557840393197,-3.64184950527,-2.32665689258,1.60013606493,2.31928324961,-2.71002630848,-0.986364002006,2.66626224758,-1.71346573167,-4.2210106108,2.65060931366,1.39023350351,-0.634511262672,0.656453338328,-0.52371241129,-0.0388664685675,-0.915525507413,1.14230869456
1.47239023738,-4.42685409101,0.491601511097,0.135867779199,-1.01422139996,2.02825066848,-1.38005719676,3.66086127044,2.19694950775,2.21050891064,0.284250393725,-4.74094219198,0.702876856671,-2.78187290466,0.815340371961,-0.859406318995,0.0647403012248,0.572712080039,1.60803461621,-5.27205742218,0.329935872727,0.563236678686,-3.68421495724,-2.34556205919,1.62726305795,2.34883620177,-2.7391081624,-0.999675395772,2.69336781055,-1.7206917079,-4.26889388019,2.65964743063,1.40122469167,-0.638276530153,0.659261831186,-0.525874665726,-0.0445173699397,-0.910466799955,1.14242189025
1.48712880247,-4.47406954709,0.5073163232,0.125771006374,-1.02142714406,2.04385155719,-1.39458716716,3.70968100288,2.20257381554,2.22725530092,0.290687850087,-4.76036676338,0.71968916341,-2.81053624913,0.831798705449,-0.866500045842,0.0673050279136,0.581455732351,1.61395776968,-5.30473456722,0.335730817571,0.56841408805,-3.72558331846,-2.36418409466,1.65363100472,2.37768914847,-2.76759810757,-1.0127041385,2.71999299972,-1.7278305303,-4.31607760043,2.66860031352,1.41198117381,-0.642029009548,0.661800690258,-0.527958237314,-0.0498467928601,-0.90536394778,1.14237084174
1.50141195402,-4.52029025861,0.522932930464,0.115792695873,-1.02838582341,2.05919878856,-1.40878308131,3.75767936228,2.20813007185,2.2437270252,0.297003210548,-4.77926538982,0.735939341271,-2.8385902109,0.848212020597,-0.873544048537,0.0699445207166,0.590066564001,1.61964782695,-5.3369134362,0.341525325445,0.57338148248,-3.76598121494,-2.38252997591,1.67925463606,2.40586826496,-2.79550993539,-1.02545643012,2.74614170587,-1.73489128473,-4.36257416217,2.67748147834,1.42250266511,-0.645771153259,0.66407765876,-0.529962342474,-0.0548585265159,-0.900219768724,1.14216296809
1.51525982327,-4.5655371903,0.53845663327,0.105925247409,-1.03510693911,2.07430306017,-1.42265303758,3.80486916167,2.21363066661,2.25993849352,0.303201404301,-4.79766634752,0.751652558406,-2.86604310984,0.864586727888,-0.88053961289,0.0726563769322,0.59855235138,1.62511643864,-5.36862088898,0.347318810726,0.578147794396,-3.80543555249,-2.40060653603,1.70415000251,2.43339866864,-2.82285779306,-1.03793863161,2.77181869036,-1.74188226128,-4.40839641202,2.68630278252,1.43278950598,-0.649505548848,0.666100560255,-0.531886513771,-0.0595569935712,-0.895036632083,1.14180562414
1.52869172611,-4.60983225781,0.553892335707,0.0961615379856,-1.04159982859,2.08917436538,-1.43620531821,3.85126427191,2.21908679753,2.27590311616,0.309287287628,-4.81559571932,0.766853069208,-2.89290434683,0.88092855065,-0.887487916287,0.075438180049,0.606920285557,1.6303744594,-5.39988166718,0.35311059441,0.582721951929,-3.84397333944,-2.41842046955,1.72833418941,2.46030445999,-2.84965606665,-1.0501572236,2.79702945719,-1.74881102283,-4.45355755523,2.69507458915,1.4428425867,-0.653234891137,0.667877274526,-0.533730556681,-0.0639471587588,-0.889816515029,1.14130608943
1.54172616989,-4.65319807828,0.569244597851,0.086494901736,-1.04787362906,2.10382206084,-1.44944834213,3.89687941246,2.22450858095,2.29163340116,0.31526563312,-4.83307760618,0.781564171351,-2.91918422261,0.897242607724,-0.894390022844,0.0782875164579,0.615177038956,1.6354320334,-5.43071859518,0.358899926734,0.587112814813,-3.88162153282,-2.43597833646,1.75182506524,2.48660876213,-2.87591927881,-1.06211876798,2.82178013691,-1.75568446782,-4.49807106581,2.70380591722,1.45266327827,-0.656961958443,0.669415715317,-0.535494510967,-0.0680344462321,-0.88456105455,1.1406715592
1.55438086513,-4.69565775093,0.584517681947,0.0769191094081,-1.05393724769,2.1182549266,-1.46239061907,3.94172996619,2.22990515215,2.3071410407,0.321141120504,-4.85013431611,0.79580818073,-2.94489377321,0.913533487486,-0.901246881927,0.081201989423,0.623328822662,1.64029866793,-5.46115275968,0.364686006212,0.591329120656,-3.9184069062,-2.45328656502,1.77464106098,2.51233375877,-2.90166199986,-1.07382987261,2.8460773821,-1.76250888757,-4.54195060433,2.71250457897,1.46225336932,-0.660689592349,0.670723809823,-0.537178616335,-0.0718246651262,-0.879271594704,1.13990913691
1.56667274073,-4.73723466579,0.599715592723,0.0674283476635,-1.0597993376,2.13248121947,-1.47504070594,3.98583181634,2.23528475631,2.3224369878,0.326918329062,-4.86678653324,0.809606421151,-2.97004462141,0.929805313651,-0.908059329201,0.084179230721,0.631381435777,1.64498329682,-5.4912036703,0.370467995635,0.595379440581,-3.95435593742,-2.47035145383,1.7968009782,2.53750073072,-2.92689877116,-1.08529715929,2.8699282737,-1.76929001855,-4.58520994356,2.72117730514,1.47161500893,-0.664420680521,0.671809479871,-0.538783281991,-0.0753239427594,-0.8739492292,1.13902582825
1.57861796216,-4.77795233836,0.614842112193,0.0580171983674,-1.0654682795,2.14650872046,-1.48740716648,4.02920120368,2.24065483099,2.33753152428,0.332601731607,-4.88305346901,0.82297922602,-2.99464884396,0.946061803364,-0.914828089551,0.0872169102962,0.639340308038,1.6494943353,-5.52088940344,0.376245035471,0.599272143217,-3.98949471424,-2.48717917301,1.81832382339,2.56213009089,-2.95164403968,-1.09652723478,2.89334023768,-1.77603309014,-4.62786290183,2.72982985911,1.48075065511,-0.668158142132,0.672680624696,-0.540309059795,-0.0785386649027,-0.868594839393,1.13802853617
1.59023195188,-4.81783426772,0.629900829369,0.0486806180256,-1.07095216816,2.16034477677,-1.4994985345,4.07185460214,2.24602208097,2.3524343212,0.338195689903,-4.8989529977,0.835945949661,-3.01871885361,0.96230631817,-0.921553781351,0.0903127442185,0.647210536717,1.6538397276,-5.55022673123,0.382016255082,0.60301536612,-4.02384885626,-2.50377576501,1.83922866628,2.58624141787,-2.9759121026,-1.107526665,2.9163209712,-1.78274286802,-4.66992328382,2.73846714057,1.48966302842,-0.671904915505,0.673345105222,-0.541756620647,-0.0814754225487,-0.863209127903,1.13692405686
1.6015294114,-4.85690381621,0.644895165343,0.0394139175136,-1.07625880319,2.17399633905,-1.51132328107,4.11380861104,2.2513925462,2.36715449239,0.34370445141,-4.91450177798,0.848524986216,-3.04226729517,0.978541908478,-0.928236921645,0.0934645011925,0.654996918668,1.65802698841,-5.57923123741,0.387780782077,0.606616993697,-4.0574434514,-2.52014714489,1.85953451972,2.60985348822,-2.99971706102,-1.11830195221,2.93887837759,-1.7894236938,-4.7114048286,2.74709327966,1.49835507068,-0.67566394768,0.673810729789,-0.543126733833,-0.0841409646289,-0.857792648114,1.13571907651
1.61252434466,-4.89518410816,0.659828394222,0.0302127422267,-1.08139568372,2.18746999447,-1.52288978563,4.15507986237,2.25677166353,2.38170064205,0.349132147224,-4.929715362,0.86073379439,-3.06530695448,0.994771352105,-0.934877931935,0.0966700078229,0.66270397824,1.66206323911,-5.6079174213,0.393537750098,0.610084640819,-4.09030300536,-2.53629910037,1.87926023886,2.63298430747,-3.02307278162,-1.1288595151,2.96102050939,-1.79607952104,-4.75232116437,2.75571172222,1.50682990804,-0.679438185595,0.674085241218,-0.544420249007,-0.0865421561487,-0.852345829837,1.13442016867
1.62323008227,-4.93269794583,0.674703660373,0.0210730527601,-1.08637000622,2.20077199595,-1.53420631118,4.19568494155,2.26216432276,2.39608090706,0.354482791071,-4.94460829343,0.872588926582,-3.0878506795,1.01099718754,-0.941477144308,0.0999271528095,0.670335991662,1.66595523959,-5.63629879158,0.399286305266,0.613425641348,-4.1224514025,-2.55223729169,1.89842443769,2.65565113993,-3.04599286564,-1.13920567154,2.98275551863,-1.80271394812,-4.79268576945,2.76432530685,1.51509081839,-0.683230568668,0.674176305154,-0.545638080567,-0.0886859412371,-0.846869001471,1.13303379211
1.63365930647,-4.96946774052,0.689523992454,0.0119911062105,-1.09118866531,2.21390828818,-1.54528098313,4.23564032007,2.26757491749,2.41030299453,0.359760279197,-4.95919419572,0.884106061176,-3.1099113122,1.02722174247,-0.948034807714,0.103233890221,0.677897008419,1.66970941623,-5.66438795059,0.405025611499,0.616647040876,-4.15391187669,-2.56796725143,1.91704542064,2.67787053733,-3.06849062404,-1.14934662393,3.00409161381,-1.80933024813,-4.8325119391,2.77293633443,1.5231412024,-0.687044022557,0.674091499577,-0.546781194137,-0.0905793106354,-0.841362408972,1.13156628913
1.64382407637,-5.00551545702,0.704292314638,0.00296343817101,-1.09585825672,2.22688453068,-1.55612177181,4.27496229901,2.27300739141,2.42437421525,0.364968391048,-4.97348585154,0.895300036987,-3.13150163055,1.04344715814,-0.954551094254,0.106588241971,0.685390870038,1.67333188676,-5.69219667051,0.410754854873,0.619755593045,-4.18470699098,-2.58349438425,1.93514112773,2.69965836641,-3.0905790582,-1.15928844697,3.02503702278,-1.81593139612,-4.87181275771,2.78154663075,1.53098455811,-0.690881453933,0.673838305436,-0.547850594962,-0.0922292731842,-0.835826231955,1.13002388422
1.65373585335,-5.0408625698,0.719011455441,-0.00601315452462,-1.10038508241,2.23970611833,-1.56673647827,4.31366696174,2.27846528015,2.43830151344,0.370110790576,-4.98749527449,0.906184889027,-3.15263429933,1.05967541002,-0.961026105367,0.109988299604,0.692821226671,1.67682848221,-5.71973596204,0.416473247155,0.62275775888,-4.21485862474,-2.5988239667,1.95272909132,2.72102983551,-3.11227084552,-1.1690370775,3.04559996087,-1.82252009404,-4.91060107567,2.79015760286,1.53862445858,-0.694745746103,0.673424098293,-0.548847317958,-0.0936428308962,-0.830260597236,1.12841268295
1.6634055265,-5.07553002932,0.733684154512,-0.0149416302711,-1.10477515711,2.25237819962,-1.57713272312,4.35177013516,2.28395174945,2.45209149327,0.375191028077,-5.00123377374,0.916773884914,-3.17332182901,1.0759083253,-0.967459877839,0.113432225484,0.700191551748,1.68020476665,-5.74701613659,0.422180028644,0.625659708632,-4.24438796727,-2.61396114706,1.96982640297,2.74199952016,-3.13357832906,-1.17859830644,3.06578860388,-1.82909879334,-4.94888949071,2.79877028959,1.54606453237,-0.698639755362,0.672856140922,-0.549772419262,-0.0948269572385,-0.824665590114,1.1267386712
1.67284343777,-5.10953823712,0.748313067707,-0.0238247183495,-1.10903421624,2.26490569299,-1.58731793808,4.38928735811,2.28946962961,2.46575044252,0.38021254245,-5.01471201258,0.927079561398,-3.19357654178,1.0921475976,-0.97385238959,0.116918253455,0.707505154989,1.68346605477,-5.77404686249,0.427874470417,0.628467325687,-4.27331551688,-2.62891094536,1.98644968917,2.76258138768,-3.15451351082,-1.18797777247,3.08561106506,-1.83566971573,-4.986690333,2.80738540684,1.55330844643,-0.702566307949,0.672141576784,-0.550626969072,-0.0957885782772,-0.819041263655,1.12500771449
1.68205940692,-5.14290702855,0.762900770751,-0.0326649337634,-1.11316772475,2.27729330141,-1.59729935995,4.42623385614,2.29502144688,2.47928435369,0.38517866376,-5.02794006132,0.937113760562,-3.21341054382,1.10839479927,-0.980203565192,0.120444689058,0.714765193981,1.68661742772,-5.80083721591,0.433555876051,0.631186212137,-4.30166108459,-2.64367825348,2.00261509437,2.78278882102,-3.17508804805,-1.19718095739,3.10507537597,-1.84223487208,-5.02401565375,2.81600338814,1.56035989131,-0.70652819753,0.671287424304,-0.551412045642,-0.09653455637,-0.813387646244,1.12322555757
1.69106275588,-5.1756556618,0.777449761734,-0.0414645912535,-1.11718088671,2.28954552547,-1.60708402676,4.46262452191,2.30060945175,2.49269894291,0.390092616055,-5.04092744523,0.946887665389,-3.23283570313,1.12465139164,-0.986513281111,0.124009909348,0.721974684506,1.68966374745,-5.82739572711,0.439223582914,0.633821695695,-4.3294438016,-2.65826783536,2.01833827053,2.8026346416,-3.19531325211,-1.20621318286,3.12418947048,-1.84879607971,-5.06087721683,2.82462442078,1.5672225683,-0.710528183098,0.67030057189,-0.552128730269,-0.0970716761198,-0.807704747625,1.12139782412
1.69986233271,-5.20780281252,0.791962462678,-0.0502258185007,-1.12107865543,2.30166667515,-1.61667877575,4.49847390028,2.30623564475,2.50599966686,0.394957520334,-5.05368318808,0.956411834411,-3.25186363225,1.1409187336,-0.992781370655,0.127612362359,0.729136509783,1.69260966969,-5.85373042236,0.444876963073,0.636378837637,-4.35668212994,-2.67268432747,2.0336343719,2.82213113142,-3.2152000895,-1.21507960848,3.14296117161,-1.85535497819,-5.09728649303,2.83324847812,1.57390017833,-0.71456898725,0.669187773628,-0.552778103155,-0.0974066323321,-0.801992563655,1.11953001659
1.70846653482,-5.23936657291,0.806441220358,-0.0589505685355,-1.12486574391,2.31366088043,-1.62609024289,4.53379617762,2.31190179964,2.519191738,0.399776397611,-5.06621585159,0.965696235289,-3.27050567512,1.15719808863,-0.999007628628,0.131250566285,0.736253428751,1.69545965579,-5.87984886208,0.450515423868,0.638862441529,-4.38339387567,-2.68693223933,2.0485180543,2.84129005431,-3.23475918471,-1.22378523097,3.16139818091,-1.86191304381,-5.13325465664,2.84187534832,1.58039641243,-0.718653294751,0.667955645598,-0.553361240026,-0.0975460197433,-0.796251079934,1.11762751617
1.71688333161,-5.27036445469,0.820888306569,-0.0676406313763,-1.1285466354,2.32553210095,-1.63532486387,4.56860517465,2.31760948455,2.53228013826,0.404552172037,-5.0785335714,0.974750277164,-3.2887728976,1.17349063066,-1.0051918157,0.134923108386,0.74332808353,1.69821798345,-5.90575817547,0.456138408205,0.641277062512,-4.40959620397,-2.70101595421,2.06300347817,2.86012267651,-3.25400082449,-1.23233488433,3.17950806994,-1.86847160283,-5.16879258397,2.85050465988,1.58671494356,-0.722783751359,0.666610662752,-0.553879209405,-0.0974963243132,-0.790480274512,1.1156955828
1.7251202863,-5.30081339526,0.835305917961,-0.0762976449283,-1.13212559412,2.33728413469,-1.64438887613,4.60291434226,2.32336008097,2.54526963135,0.409287674013,-5.09064408968,0.983582841716,-3.30667608111,1.18979744892,-1.01133366251,0.138628643674,0.750363006126,1.70088875668,-5.93146509216,0.461745394601,0.643627016982,-4.43530565597,-2.71493973009,2.07710431454,2.87863978639,-3.27293496331,-1.24073324082,3.19729827365,-1.87503184361,-5.20391085367,2.85913590429,1.59285941963,-0.726962962852,0.665159156312,-0.554333070447,-0.0972639158938,-0.784680119788,1.1137393554
1.73318457702,-5.33072976631,0.84969617558,-0.0849231051719,-1.13560667581,2.34892062602,-1.65328832182,4.63673675999,2.32915480097,2.55816477401,0.413985643274,-5.10255478497,0.99220231285,-3.32422571897,1.20611955197,-1.01743287344,0.142365893401,0.757360624497,1.70347591485,-5.95697597092,0.467335897011,0.645916392476,-4.4605381665,-2.7287077006,2.09083375346,2.89685171354,-3.29157122983,-1.24898481275,3.21477608537,-1.88159482772,-5.2386197484,2.86776845615,1.59883345759,-0.731193494223,0.663607311627,-0.554723871263,-0.096855042111,-0.778850583762,1.11176385206
1.74108301704,-5.36012938465,0.864061124219,-0.0935183756779,-1.13899373821,2.36044507292,-1.6620290516,4.67008513663,2.3349947028,2.57096992607,0.418648731904,-5.11427269931,1.00061660502,-3.34143201491,1.22245787101,-1.02348913025,0.146133643379,0.764323268038,1.70598324112,-5.98229682596,0.472909464465,0.648149057668,-4.4853090829,-2.74232387629,2.10420451441,2.91476834718,-3.309918934,-1.25709395477,3.23194865316,-1.88816150014,-5.27292925777,2.87640159092,1.60464063847,-0.735477869021,0.661961166469,-0.555052647658,-0.0962758233111,-0.772991630729,1.10977397037
1.74882207423,-5.38902752456,0.878402731658,-0.102084696486,-1.14229045124,2.37186083377,-1.67061672891,4.7029718126,2.34088070488,2.58368925976,0.423279507274,-5.12580456302,1.00883319013,-3.35830488354,1.23881326275,-1.02950209535,0.149930742154,0.771253172549,1.70841437009,-6.00743335091,0.478465680552,0.650328672348,-4.50963318414,-2.75579214588,2.11722885813,2.93239915387,-3.32798707483,-1.26506486674,3.24882297739,-1.89473269863,-5.30684908232,2.88503450067,1.61028450317,-0.739818568798,0.660226609702,-0.555320422219,-0.0955322484424,-0.767103221539,1.10777448785
1.75640788968,-5.41743893147,0.892722887871,-0.11062319238,-1.14550030697,2.3831711335,-1.67905683484,4.73540876395,2.3468135985,2.59632676813,0.427880454868,-5.13715681737,1.01685912315,-3.37485395238,1.25518651184,-1.03547141489,0.153756099059,0.778152484754,1.71077279511,-6.03239094071,0.484004162748,0.652458697303,-4.5335247004,-2.76911627778,2.12991859962,2.94975319462,-3.34578434851,-1.27290159701,3.26540590925,-1.90130916228,-5.34038863823,2.89366630789,1.61576854903,-0.744218032658,0.658409380313,-0.555528203709,-0.0946301717565,-0.761185313487,1.10577006239
1.7638462954,-5.44537783654,0.907023404262,-0.119134880608,-1.14862662921,2.39437906934,-1.68735467317,4.76740760753,2.35279405923,2.60888627281,0.432453981,-5.14833563528,1.02470106629,-3.3910885652,1.27157833296,-1.04139672172,0.157608682161,0.785023266406,1.71306187483,-6.05717471169,0.489524561633,0.654542404027,-4.55699733268,-2.78229992168,2.14228512188,2.96683914135,-3.36331915678,-1.28060804603,3.28170415027,-1.90789153942,-5.37355706284,2.90229607774,1.62109622697,-0.748678656871,0.656515066755,-0.555676986712,-0.093575310229,-0.755237859926,1.1037652328
1.77114283129,-5.47285797196,0.921306012963,-0.127620678066,-1.15167258281,2.40548761618,-1.69551537578,4.79897960716,2.35882265727,2.62137143112,0.437002415396,-5.15934694028,1.03236531194,-3.40701778633,1.28798937272,-1.04727763799,0.161487516121,0.791867498025,1.71528483949,-6.08178951993,0.495026559992,0.656582884204,-4.58006427226,-2.79534661022,2.15433939027,2.98366529282,-3.38059961551,-1.28818797025,3.29772425236,-1.91448039484,-5.40636322061,2.91092282876,1.62627093917,-0.753202794559,0.654549106585,-0.555767751488,-0.0923732416084,-0.749260809654,1.10176441943
1.77830276117,-5.4998925867,0.935572366249,-0.136081408001,-1.15464118254,2.4164996316,-1.70354390813,4.83013568071,2.36489986668,2.63378574276,0.441528013663,-5.1701964239,1.03985780439,-3.42265040596,1.30442021147,-1.05311377769,0.165391679993,0.79868708232,1.71744479665,-6.10623997811,0.500509871833,0.658583058928,-4.60273822012,-2.80825976085,2.16609196711,3.00023958993,-3.39763356338,-1.29564498618,3.31347261865,-1.92107621647,-5.43881570953,2.91954554229,1.63129603724,-0.757792755423,0.652516786354,-0.555801464011,-0.0910294030171,-0.743254106139,1.0997719248
1.78533108812,-5.52649446246,0.949824036088,-0.144517806256,-1.15753530156,2.42741786048,-1.7114450748,4.86088640769,2.37102607377,2.64613255588,0.446032959608,-5.18088956155,1.04718416021,-3.43799494597,1.32087136489,-1.058904749,0.169320304953,0.805483847306,1.71954473665,-6.1305304709,0.505974241318,0.66054568761,-4.62503140582,-2.82104267777,2.17755302643,3.01656963053,-3.41442857051,-1.30298257466,3.3289555047,-1.92767942144,-5.47092286786,2.92816317074,1.63617482081,-0.762450805519,0.650423241752,-0.555779076154,-0.0895490900345,-0.737217686624,1.09779193435
1.79223256891,-5.55267592976,0.964062513853,-0.152930527094,-1.16035767956,2.43824493949,-1.71922352507,4.89124203748,2.37720158467,2.65841507289,0.450519367441,-5.19143162717,1.05434968766,-3.45305966632,1.33734328568,-1.0646501564,0.173272572002,0.812259549167,1.72158753763,-6.15466516921,0.511419441637,0.662473376572,-4.64695560619,-2.83369855391,2.18873236872,3.03266268365,-3.43099194706,-1.3102040852,3.34417902021,-1.93429036173,-5.50269278105,2.93677464482,1.64091053636,-0.76717916706,0.648273457952,-0.555701525987,-0.0879374562018,-0.731151481152,1.09582851724
1.79901172771,-5.57844888403,0.978289210199,-0.161320148633,-1.16311093044,2.4489834012,-1.72688375837,4.92121249778,2.38342663206,2.67063635577,0.454989283835,-5.20182770656,1.06135940488,-3.46785257182,1.35383636516,-1.07034960276,0.177247709624,0.819015874881,1.72357597033,-6.17864804322,0.51684527382,0.664368587279,-4.66852216336,-2.84623047309,2.19963943549,3.04852570329,-3.44733075174,-1.31731274038,3.359149131,-1.94090932932,-5.53413328883,2.94537887984,1.64550637651,-0.771980018254,0.646072270162,-0.555569738186,-0.0861995128972,-0.725055411543,1.09388562715
1.80567286904,-5.60382480148,0.992505455135,-0.169687177921,-1.16579754963,2.45963567807,-1.73443012974,4.95080740348,2.3897013813,2.68279933122,0.459444689874,-5.21208270976,1.06821805709,-3.4823814191,1.37035093496,-1.07600269117,0.181244991441,0.825754444629,1.72551270248,-6.20248287433,0.522251565509,0.666233644241,-4.68974200237,-2.85864141218,2.21028332359,3.06416534166,-3.46345180016,-1.32431164029,3.37387166134,-1.94753656097,-5.56525199239,2.95397478121,1.64996547946,-0.776855493162,0.643824364353,-0.55538462451,-0.0843401295339,-0.718929390354,1.09196710323
1.81222009003,-5.62881475479,1.00671249828,-0.178032055683,-1.16841992098,2.47020410619,-1.74186685505,4.98003606555,2.39602593597,2.69490679546,0.463887502865,-5.22220138229,1.0749301328,-3.49665372383,1.3868872687,-1.08160902671,0.185263733846,0.832476814021,1.72740030306,-6.22617326629,0.527638169689,0.668070742535,-4.71062564817,-2.87093424338,2.22067279926,3.07958796197,-3.47936167302,-1.33120376696,3.38835229644,-1.95417224255,-5.59605626154,2.9625612492,1.65429092867,-0.781807681583,0.641534278151,-0.555147084344,-0.0823640340424,-0.712773319841,1.090076671
1.81865729191,-5.6534294285,1.02091150932,-0.186355160758,-1.17098032329,2.48069092886,-1.74919801611,5.00890750013,2.40240034276,2.70696141874,0.468319578045,-5.23218831557,1.08149987909,-3.51067676792,1.40344558384,-1.08716821804,0.189303293648,0.83918447615,1.72924124619,-6.24972265531,0.533004963399,0.669881954984,-4.73118324203,-2.88311173654,2.23081631167,3.09479965081,-3.49506672407,-1.33799198875,3.40259658515,-1.96081651306,-5.62655324191,2.97113718314,1.65848575272,-0.786838628954,0.639206401881,-0.554858005289,-0.0802758136007,-0.706587090946,1.08821794341
1.82498819087,-5.67767913401,1.03510357863,-0.194656814261,-1.17348093648,2.49109830002,-1.75642756563,5.0374304376,2.408824596,2.7189657498,0.472742710177,-5.24204795645,1.08793131603,-3.52445760676,1.42002604352,-1.09267987898,0.193363065719,0.845878863488,1.7310379149,-6.27313431955,0.538351846415,0.671669238974,-4.75142455732,-2.89517656151,2.24072200616,3.10980623002,-3.51057308792,-1.34467906471,3.41660994276,-1.96746946838,-5.65674986205,2.97970148493,1.66255292542,-0.791950336271,0.63684497974,-0.554518263785,-0.0780799155829,-0.700370582318,1.08639442185
1.83121632834,-5.70157382423,1.04928971812,-0.202937283484,-1.17592384738,2.50142828749,-1.76355933193,5.06561333163,2.41529864164,2.73092222,0.47715863504,-5.25178461597,1.09422825024,-3.53800307648,1.43662875859,-1.09814362983,0.197442480664,0.852561349654,1.73279260462,-6.29641138773,0.543678739933,0.673434442921,-4.77135901475,-2.90713129062,2.25039773695,3.1246132682,-3.52588668759,-1.35126764887,3.43039765389,-1.97413116461,-5.68665284042,2.98825306223,1.6664953659,-0.797144760035,0.634454111102,-0.554128725765,-0.0757806486996,-0.694123659386,1.08460949731
1.83734508059,-5.72512310773,1.06347086221,-0.211196785563,-1.17831105515,2.51168287618,-1.77059702347,5.09346436817,2.42182238093,2.74283314738,0.481569030831,-5.26140247743,1.1003942877,-3.55131980102,1.45325378966,-1.10355909875,0.201541002517,0.859233251055,1.73450752651,-6.31955684723,0.548985585233,0.6751793124,-4.7909956969,-2.91897840112,2.25985107935,3.13922609179,-3.5410132418,-1.35776029437,3.44396487548,-1.98080162127,-5.71626869229,2.99679083103,1.67031593898,-0.802423812208,0.632037751942,-0.55369024731,-0.0733821843054,-0.687846173495,1.0828664515
1.84337766776,-5.7483362625,1.07764786903,-0.219435490921,-1.1806444764,2.52186397104,-1.77754423318,5.12099147433,2.42839567366,2.75470074053,0.48597551947,-5.27090560383,1.10643284581,-3.56441419911,1.46990114929,-1.1089259229,0.205658126467,0.865895828419,1.73618481058,-6.34257355152,0.554272342354,0.676905495939,-4.81034336216,-2.93072027765,2.26908934151,3.15364979574,-3.5559582721,-1.36415945765,3.45731663982,-1.98748082413,-5.74560373651,3.005313718,1.67401745549,-0.807789360198,0.629599716354,-0.553203675327,-0.0708885578561,-0.681537961105,1.0811684581
1.84931716239,-5.77122224924,1.09182152178,-0.227653526518,-1.18292595001,2.53197340002,-1.78440444253,5.1482023271,2.43501834116,2.76652710242,0.490379667839,-5.28029794465,1.11234716479,-3.57729249114,1.48657080429,-1.11424374957,0.209793376625,0.872550288239,1.73782650873,-6.36546422706,0.559538988774,0.678614550497,-4.82941045813,-2.94235921482,2.27811957561,3.16788925381,-3.57072710968,-1.37046750234,3.4704578575,-1.99416872791,-5.7746641021,3.01382066241,1.67760267278,-0.813243226858,0.627143678177,-0.552669848214,-0.0683036704948,-0.675198843063,1.07951858402
1.85516649739,-5.79378972407,1.10599253014,-0.23585097891,-1.18515724158,2.54201291686,-1.79118102549,5.17510436192,2.44169016901,2.77831423405,0.494782988933,-5.28958334214,1.11814031837,-3.58996070574,1.50326267806,-1.11951223722,0.213946303837,0.87919778412,1.73943459751,-6.3882314797,0.564785518099,0.68030794663,-4.84820513435,-2.95389741971,2.28694858866,3.18194912853,-3.58532490203,-1.37668670322,3.48339332049,-2.00086525875,-5.80345573465,3.02231061782,1.68107429527,-0.818787190508,0.624673172709,-0.55208959653,-0.0656312907539,-0.668828623957,1.07791979069
1.86092847357,-5.81604705092,1.12016153198,-0.244027897138,-1.18734004766,2.55198420378,-1.79787725216,5.20170478111,2.44841090944,2.79006403801,0.49918694296,-5.29876553706,1.12381522394,-3.60242468632,1.5199766531,-1.1247310564,0.218116483543,0.885839418067,1.74101098084,-6.41087780066,0.570011938775,0.681987073362,-4.8667352545,-2.96533701442,2.29558295264,3.19583388074,-3.59975661928,-1.38281924992,3.49612770514,-2.00757031642,-5.83198440262,3.03078255344,1.68443497498,-0.824422984987,0.6221915985,-0.551463743647,-0.0628750563578,-0.662427091549,1.07637493547
1.86660576666,-5.8380023133,1.1343290951,-0.252184295462,-1.18947599966,2.56188887411,-1.80449629228,5.228010562,2.45518028362,2.801778322,0.503592938373,-5.30784817401,1.12937465205,-3.61469009722,1.53671257353,-1.12989989061,0.222303513698,0.892476241694,1.7425574926,-6.43340557206,0.575218272818,0.683653242776,-4.88500840802,-2.97668003868,2.30402901433,3.20954777884,-3.61402706043,-1.38886725059,3.50866557513,-2.01428377647,-5.86025570338,3.03923545532,1.68768731224,-0.830152299716,0.61970221923,-0.55079310639,-0.0600384761158,-0.655994016281,1.07488677303
1.87220093394,-5.85966332566,1.14849571908,-0.260320155948,-1.19156666753,2.5717284748,-1.81104121852,5.25402846497,2.46199798367,2.81345880227,0.508002332858,-5.31683480621,1.13482123542,-3.62676242982,1.55347024766,-1.13501843709,0.226507012749,0.899109257388,1.74407589899,-6.4558170721,0.580404554574,0.685307694335,-4.90303192122,-2.98792845233,2.3122929045,3.22309490766,-3.62814085919,-1.3948327354,3.52101138442,-2.02100549209,-5.88827506908,3.04766832739,1.69083385628,-0.835976779802,0.617208165656,-0.550078495661,-0.0571249318928,-0.64952915088,1.07345795683
1.87771642043,-5.88103764426,1.16266183728,-0.26843543091,-1.1936135632,2.58150448887,-1.81751500956,5.27976504116,2.46886367452,2.82510710696,0.51241643427,-5.32572890006,1.14015747744,-3.63864700828,1.57024945071,-1.1400864075,0.230726617674,0.905739419416,1.74556790092,-6.47811447988,0.585570829505,0.68695159895,-4.92081286785,-2.99908413794,2.32038054677,3.23647917704,-3.64210248981,-1.4007176599,3.53316948014,-2.02773529596,-5.91604777236,3.0560801922,1.69387710601,-0.841898026156,0.614712437619,-0.549320717038,-0.0541376806514,-0.643032230029,1.07209104064
1.88315456475,-5.9021325776,1.17682781889,-0.276530045242,-1.19561814377,2.59121833777,-1.82392055304,5.30522664005,2.47577699566,2.83672477941,0.516836501539,-5.33453383915,1.14538576009,-3.6503489952,1.58704992752,-1.1451035286,0.234961982097,0.912367634998,1.74703513621,-6.50029987991,0.590717153013,0.6885860628,-4.93835807919,-3.01014890331,2.32829766596,3.24970433003,-3.65591627252,-1.40652390832,3.54514410543,-2.03447300186,-5.94357893187,3.06447009164,1.69681951069,-0.847917595644,0.612217906127,-0.548520571355,-0.0510798565536,-0.636502970131,1.07078848007
1.8885176046,-5.92295519636,1.1909939711,-0.284603898614,-1.19758181448,2.60087138363,-1.83026064831,5.33041941676,2.48273756272,2.84831328138,0.521263745538,-5.3432529281,1.15050835157,-3.66187339694,1.60387139524,-1.15006954276,0.239212774464,0.918994765338,1.7484791817,-6.52237526635,0.595843589303,0.690212130926,-4.95567415364,-3.02112448401,2.33604979607,3.26277395083,-3.66958637889,-1.41225329669,3.55693940222,-2.04121840619,-5.97087351751,3.07283708747,1.69966347066,-0.85403700127,0.609727315482,-0.547678855254,-0.0479544731179,-0.629941069144,1.06955263421
1.89380768189,-5.94351234295,1.20516054131,-0.292656867568,-1.19950593153,2.61046493151,-1.83653800901,5.3553493391,2.48974496893,2.85987399628,0.525699329921,-5.35188939591,1.1555274133,-3.67322506879,1.62071354615,-1.15498420847,0.243478676303,0.925621626633,1.74990155532,-6.54434254692,0.60095021028,0.691830790614,-4.97276746592,-3.03201254585,2.34364228776,3.27569147243,-3.68311683694,-1.41790757581,3.56855941393,-2.04797128939,-5.99793635564,3.08118026172,1.70241133812,-0.86025771238,0.607243285466,-0.546796361706,-0.0447644254229,-0.623346206504,1.06838576725
1.89902684758,-5.96381064062,1.21932771941,-0.300688807502,-1.20139180465,2.62000023151,-1.84275526551,5.38002219446,2.49679878652,2.87140823226,0.530144371949,-5.36044639921,1.16044500669,-3.68440871991,1.63757605039,-1.15984730081,0.24775938055,0.932248991058,1.75130371799,-6.5662035467,0.606037094496,0.693442974565,-4.98964417576,-3.04281468739,2.35108031559,3.28846018389,-3.69651153609,-1.4234884342,3.58000808813,-2.05473141724,-6.02477213397,3.08949871707,1.70506541786,-0.86658115491,0.604768313579,-0.545873880512,-0.0415124923534,-0.616718043117,1.06729005018
1.90417706626,-5.98385650215,1.23349564003,-0.308699554566,-1.20324069953,2.62947848081,-1.84891496726,5.4044435964,2.50389856802,2.88291722534,0.534599943284,-5.36892702508,1.16526309937,-3.6954289181,1.65445855879,-1.16465861175,0.252054589963,0.938877587721,1.75268707555,-6.58796001154,0.61110432614,0.695049563875,-5.00631023624,-3.05353244233,2.35836888477,3.30108323739,-3.70977423192,-1.42899750082,3.59128927911,-2.06149854208,-6.05138540632,3.09779157709,1.70762796803,-0.873008711649,0.602304777319,-0.544912198767,-0.0382013388816,-0.610056221427,1.06626756252
1.9092602204,-6.00365613814,1.24766438499,-0.316688927449,-1.20505384006,2.63890082568,-1.85501958491,5.42861899103,2.51104384744,2.89440214246,0.539067070783,-5.37733429375,1.16998357117,-3.7062900943,1.67136070555,-1.1694179505,0.25636401561,0.94550810362,1.75405298054,-6.60961361145,0.616151994072,0.696651390838,-5.02277140171,-3.06416728197,2.36551283762,3.31356365497,-3.72290855073,-1.43443634774,3.60240675041,-2.0682724039,-6.07778059725,3.10605798637,1.71010120088,-0.879541722549,0.599854936501,-0.543912101294,-0.0348335183799,-0.603360365549,1.06532029413
1.91427811442,-6.02321556498,1.26183398555,-0.324656729091,-1.20683241045,2.64826836342,-1.86107151245,5.45255366321,2.51823414148,2.90586408443,0.543546737273,-5.38567116101,1.17460821967,-3.71699654694,1.68828211102,-1.17412514375,0.260687375443,0.952141184577,1.75540273392,-6.63116594362,0.62118019091,0.698249241575,-5.03903323537,-3.0747206175,2.37251685972,3.32590433499,-3.73591799405,-1.43980649267,3.61336417727,-2.07505273144,-6.10396200642,3.11429711069,1.71248728354,-0.886181485059,0.597420935618,-0.542874371055,-0.03141147496,-0.596630081481,1.06445014696
1.91923247846,-6.04254061239,1.27600442488,-0.332602748302,-1.20857755718,2.65758214417,-1.86707306909,5.47625274244,2.52546895057,2.91730408891,0.548039882321,-5.3939405204,1.17913876544,-3.72755244616,1.7052223844,-1.17878003582,0.26502439295,0.958777436168,1.7567375868,-6.65261853545,0.626189012169,0.699843858504,-5.05510111647,-3.0851938024,2.37938548572,3.33810805836,-3.74880594284,-1.4451094014,3.62416514896,-2.08183924311,-6.12993381288,3.12250813707,1.71478833874,-0.89292925449,0.595004806236,-0.541799789518,-0.0279375458345,-0.589864957368,1.06365893695
1.92412497199,-6.06163693066,1.29017564036,-0.340526761304,-1.21029039083,2.66684317275,-1.87302650117,5.49972120864,2.53274775996,2.92872313333,0.552547403004,-5.40214520531,1.18357685699,-3.73796183775,1.72218112633,-1.18338248885,0.269374795895,0.96541742465,1.75805874199,-6.67397284728,0.631178555444,0.701435942658,-5.07098024719,-3.09558813464,2.38612310488,3.35017749444,-3.76157566163,-1.45034649009,3.63481317112,-2.08863164789,-6.15570007912,3.13069027376,1.71700644562,-0.899786244421,0.59260846942,-0.540689137006,-0.0244139636964,-0.583064563829,1.06294839589
1.92895718718,-6.0805099975,1.304347526,-0.348428533199,-1.21197198777,2.67605241034,-1.87893398395,5.5229638976,2.54007004072,2.94012213772,0.557070154675,-5.41028799075,1.18792407538,-3.748228647,1.73915793152,-1.18793238281,0.273738315138,0.97206167788,1.75936735565,-6.69523027505,0.636148919654,0.703026155865,-5.08667565923,-3.10590485896,2.39273396634,3.36211520672,-3.77423030254,-1.45551912751,3.64531166798,-2.09542964623,-6.18126475504,3.13884275023,1.71914364038,-0.906753627125,0.590233738182,-0.539543193001,-0.020842859114,-0.576228454347,1.06232017336
1.93373065212,-6.09916512467,1.31851993475,-0.35630781935,-1.21362339174,2.68521077619,-1.88479762322,5.54598550633,2.54743525072,2.95150196751,0.561608951728,-5.41837159516,1.19218193857,-3.75835668237,1.75615239123,-1.19242961559,0.278114683538,0.978710686238,1.76066453872,-6.71639215286,0.641100204331,0.704615122796,-5.1021922201,-3.11614516901,2.39922218412,3.37392365829,-3.78677290909,-1.46062863717,3.65566398456,-2.10223293076,-6.20663168172,3.14696481713,1.72120191711,-0.913832534041,0.587882319964,-0.538362736435,-0.0172262629361,-0.569356165702,1.06177583863
1.93844683382,-6.11760746422,1.33269268087,-0.36416436671,-1.21524561534,2.69431914918,-1.890619457,5.5687905981,2.55484283554,2.96286343631,0.566164568369,-5.42639868185,1.19635190546,-3.768349639,1.77316409578,-1.19687410294,0.282503634942,0.985364903549,1.76195135847,-6.73745975528,0.646032508965,0.706203432885,-5.11753463908,-3.12631020948,2.40559174193,3.38560521696,-3.79920641995,-1.46567629928,3.66587338871,-2.10904118707,-6.23180459506,3.15505574616,1.72318322844,-0.921024056264,0.585555819127,-0.537148545931,-0.0135661087054,-0.562447218458,1.06131688271
1.94310714111,-6.13584201449,1.34686554216,-0.371997915064,-1.21683964142,2.70337836942,-1.8964014571,5.59138360738,2.56229222944,2.97420730859,0.570737739392,-5.43437186053,1.20043537974,-3.77821110214,1.79019263683,-1.20126577838,0.286904903253,0.992024748007,1.76322883988,-6.75843429973,0.650945932405,0.707791642135,-5.13270747297,-3.13640107817,2.41184649768,3.39716216027,-3.81153367249,-1.47066335274,3.67594307318,-2.1158540944,-6.25678712928,3.16311482997,1.72508948631,-0.928329245074,0.583255739469,-0.535901400027,-0.00986423507666,-0.555501117495,1.06094472028
1.94771292729,-6.15387362579,1.36103826229,-0.379808198218,-1.21840642431,2.71238923966,-1.90214553054,5.61376884455,2.56978285625,2.98553430234,0.575329160957,-5.44229368857,1.20443371344,-3.78794455033,1.80723760968,-1.20560459315,0.291318221581,0.998690603099,1.76449796703,-6.7793169486,0.655840572305,0.709380274817,-5.1477151316,-3.14641882799,2.41799018785,3.40859668015,-3.82375740628,-1.47559099695,3.68587615759,-2.12267132623,-6.28158282028,3.17114138205,1.72692256265,-0.935749112492,0.580983486751,-0.534622077369,-0.00612238823662,-0.548517352582,1.06066069173
1.9522654928,-6.1717070059,1.37521055296,-0.387594945121,-1.2199468911,2.72135252681,-1.9078535211,5.63595050038,2.57731413019,2.99684509168,0.579939491375,-5.45016667221,1.20834821023,-3.79755335859,1.8242986155,-1.20989051599,0.295743321471,1.00536281854,1.76575968448,-6.80010881137,0.660716524625,0.710969825064,-5.16256188307,-3.15636446892,2.42402643164,3.41991088746,-3.83588026644,-1.48046039357,3.69567569034,-2.12949255096,-6.30619510889,3.17913473653,1.72868429009,-0.943284631869,0.578740371235,-0.533311356873,-0.00234222432217,-0.541495398981,1.06046606523
1.95676608758,-6.18934672525,1.38938209608,-0.395357880919,-1.2214619427,2.73026896323,-1.91352721067,5.65793265038,2.58488545681,3.00814030934,0.584569351904,-5.4579932677,1.21218012854,-3.80704080138,1.84137526332,-1.21412353294,0.300179932213,1.01204171121,1.76701489854,-6.8208109466,0.665573883188,0.712560758372,-5.17725185875,-3.16623896989,2.42995873492,3.43110681623,-3.8479048069,-1.48527266816,3.70534465043,-2.13631743239,-6.33062734401,3.187094248,1.73037646266,-0.950936738493,0.576527610225,-0.531970017863,0.00147468816491,-0.534434718094,1.06036203876
1.96121591343,-6.20679722189,1.4035525459,-0.403096727963,-1.22295245493,2.73913924812,-1.91916832065,5.67971925898,2.59249623378,3.0194205492,0.589219327544,-5.46577588229,1.21593068448,-3.81641005554,1.85846717208,-1.21830364717,0.304627780225,1.01872756607,1.76826447859,-6.84142436387,0.670412739272,0.714153513004,-5.19178905816,-3.17604326063,2.43579049403,3.44218642773,-3.8598334935,-1.49002891185,3.71488594929,-2.14314563034,-6.35488278555,3.19501929139,1.73200083645,-0.958706330239,0.574346330619,-0.530598840177,0.00532686595012,-0.527334758131,1.0603497422
1.96561612623,-6.22406280623,1.41772153102,-0.410811206748,-1.22441927945,2.74796404873,-1.92477851324,5.70131418349,2.60014585174,3.03068636866,0.593889967849,-5.47351687519,1.21960105449,-3.82566420307,1.87557397245,-1.22243087862,0.309086588511,1.02542063713,1.76950925827,-6.86195002563,0.675233181269,0.715748501323,-5.20617735352,-3.18577823343,2.44152499944,3.45315161436,-3.87166870709,-1.49473018276,3.72430243247,-2.14997680107,-6.37896460739,3.20290926169,1.73355913028,-0.966594268225,0.572197571453,-0.529198604258,0.00921290858755,-0.520194954804,1.06043023939
1.96996783801,-6.24114766559,1.43188865643,-0.418501036802,-1.22586324476,2.75674400164,-1.93035939284,5.72272117795,2.60783369512,3.04193829101,0.598581787738,-5.48121855847,1.22319237784,-3.83480623382,1.89269530863,-1.22650526377,0.313556076191,1.03212114838,1.77075003676,-6.88238884897,0.680035294376,0.717346111032,-5.22042049427,-3.19544474484,2.44716543919,3.46400420325,-3.88341274641,-1.49937750753,3.73359688133,-2.15681059781,-6.4028759001,3.21076357376,1.73505302639,-0.97460137751,0.570082286444,-0.527770091213,0.0131314960729,-0.513014732046,1.06060453027
1.97427211899,-6.25805586853,1.44605350542,-0.426165937528,-1.22728515697,2.76547971387,-1.93591250723,5.74394389679,2.61555914295,3.05317680771,0.603295268318,-5.48888319787,1.22670575896,-3.84383904813,1.90983083995,-1.23052685525,0.318035958101,1.03882929474,1.77198757989,-6.90274170733,0.684819160339,0.718946706348,-5.23452211125,-3.20504361739,2.45271490225,3.47474595979,-3.89506783098,-1.50397188264,3.74277201469,-2.16364667117,-6.42661967367,3.21858166214,1.73648417106,-0.982728447803,0.568001346533,-0.526314082849,0.0170813864706,-0.505793502748,1.06087355291
1.9785299995,-6.274791369,1.46021564144,-0.43380562898,-1.22868580068,2.77417176403,-1.9414393489,5.76498589833,2.62332156964,3.06440238061,0.608030857709,-5.49651301359,1.23014226959,-3.85276545932,1.92698024248,-1.2344957215,0.322525944455,1.045545243,1.77322262135,-6.9230094322,0.689584857237,0.720550629108,-5.24848572082,-3.21457564108,2.45817638174,3.48537859088,-3.90663610381,-1.50851427576,3.75183049035,-2.17048466959,-6.45019886003,3.22636298076,1.73785417526,-0.990976234201,0.565955542408,-0.5248313617,0.0210614135571,-0.498530669504,1.06123818565
1.98274247176,-6.29135801027,1.4743746099,-0.44141983261,-1.23006593971,2.78282070341,-1.94694135627,5.7858506482,2.63112034577,3.07561544409,0.612788971879,-5.50411018102,1.23350295074,-3.86158819616,1.9441432104,-1.23841194641,0.32702574058,1.05226913278,1.77445586377,-6.94319281469,0.694332459308,0.722158199799,-5.26231472881,-3.22404157503,2.463552778,3.49590374804,-3.91811963412,-1.51300562698,3.76077490665,-2.1773242397,-6.47361631558,3.23410700275,1.73916461529,-0.999345457935,0.563945587023,-0.523322711018,0.0250704844829,-0.491225625372,1.06169924919
1.98691049165,-6.30775952876,1.48852993992,-0.44900827195,-1.23142631782,2.79142705698,-1.95241991496,5.8065415225,2.63895483888,3.08681640718,0.61756999548,-5.51167683139,1.23678881451,-3.87030990522,1.96131945734,-1.24227562884,0.331535046703,1.05900107748,1.77568797984,-6.96329260707,0.699062036818,0.723769718542,-5.27601243424,-3.23344214888,2.46884690155,3.50632303039,-3.92952041989,-1.51744685,3.76960780393,-2.18416502675,-6.49687482357,3.24181322017,1.74041703339,-1.00783680715,0.561972118096,-0.521788914757,0.0291075774552,-0.483877754642,1.06225750868
1.99103498042,-6.32399955765,1.50268114595,-0.456570673258,-1.2327676594,2.7999913244,-1.95787635892,5.82706181094,2.64682441421,3.09800565551,0.62237428269,-5.51921505251,1.24000084579,-3.87893315318,1.97850871759,-1.24608688226,0.336053557798,1.06574116519,1.77691961337,-6.98330952431,0.70377365596,0.725385466008,-5.28958203304,-3.24277806424,2.47406147596,3.51663798736,-3.94084039034,-1.52183883329,3.77833166595,-2.1910066749,-6.51997709638,3.24948114375,1.74161293837,-1.01645093769,0.56003570059,-0.520230757537,0.0331717394431,-0.476486433607,1.06291367581
1.99511682619,-6.34008163035,1.51682772941,-0.464106766124,-1.23409067009,2.80851398096,-1.96331197172,5.84741471977,2.65472843544,3.10918355328,0.627202158058,-5.52672688935,1.24314000376,-3.88746042907,1.99571074719,-1.24984583426,0.340580963491,1.07248945969,1.7781513803,-7.00324424552,0.708467378796,0.727005704281,-5.30302662146,-3.25204999605,2.47919914058,3.52685012133,-3.9520814084,-1.52618244114,3.78694892129,-2.19784882762,-6.5429257778,3.25711030265,1.74275380621,-1.0251884739,0.558136829174,-0.518649024592,0.0372620839076,-0.469051031334,1.06366841086
1.99915688559,-6.35600918384,1.53096918018,-0.471616284023,-1.23539603738,2.81699547848,-1.96872798772,5.86760337467,2.66266626546,3.12035044515,0.63205391735,-5.53421434469,1.24620722334,-3.89589414641,2.01292532494,-1.2535526261,0.345116948012,1.07924600137,1.77938386977,-7.02309741534,0.713143263227,0.728630677675,-5.31634919951,-3.26125859389,2.4842624532,3.53696089014,-3.96324527302,-1.5304785147,3.79546194467,-2.20469112797,-6.56572344509,3.26470024419,1.74384108064,-1.03405000943,0.556275930657,-0.517044501706,0.0413777885575,-0.461570910435,1.06452232478
2.00315598512,-6.37178556182,1.54510497804,-0.479098964844,-1.23668443122,2.8254362462,-1.97412559322,5.8876308234,2.67063726707,3.13150665798,0.636929828396,-5.5416793797,1.24920341644,-3.90423664534,2.03015225326,-1.25720741224,0.349661190198,1.08601080814,1.78061764506,-7.04286964535,0.717801362995,0.730260613496,-5.32955267415,-3.27040448327,2.4892538926,3.54697170933,-3.97433372144,-1.53472787296,3.80387305824,-2.21153321893,-6.58837261113,3.27225053355,1.74487617373,-1.04303610809,0.554453366396,-0.515417975134,0.0455180931345,-0.454045427833,1.06547598127
2.00711492263,-6.38741401783,1.55923459409,-0.486554551363,-1.23795650449,2.83383669161,-1.97950592769,5.90750003843,2.67864080367,3.14265250257,0.641830131935,-5.54912391454,1.25212947312,-3.91249019466,2.04739135902,-1.26081035985,0.354213363536,1.09278387639,1.78185324454,-7.06256151538,0.722441727713,0.731895722771,-5.34263986246,-3.27948826676,2.49417586099,3.55688395439,-3.98534843138,-1.53893131369,3.8121845329,-2.21837474367,-6.61087572637,3.27976075357,1.7458604665,-1.05214730464,0.552669434676,-0.513770231519,0.0496822972272,-0.446473935523,1.06652989871
2.01103446859,-6.4028977181,1.57335749203,-0.493982791699,-1.2392128936,2.84219720121,-1.98487008491,5.92721391944,2.68667624001,3.15378827533,0.646755042464,-5.55654982895,1.2549862627,-3.92065699384,2.0646424942,-1.2643616483,0.358773136259,1.09956518188,1.78309118264,-7.0821735748,0.727064402923,0.73353620092,-5.35561349465,-3.28851052523,2.49903068646,3.56669896278,-3.9962910232,-1.5430896143,3.82039858945,-2.22521534583,-6.63323518074,3.28723050439,1.74679530943,-1.06138410567,0.550924373055,-0.512102057786,0.0538697581167,-0.438855781316,1.06768455229
2.01491536743,-6.41823974442,1.58747312944,-0.501383439723,-1.24045421893,2.85051814134,-1.99021911415,5.94677529568,2.6947429428,3.1649142598,0.651704749075,-5.5639589628,1.25777463463,-3.92873917493,2.08190553648,-1.26786146869,0.363340171462,1.1063546807,1.78433195072,-7.10170634379,0.731669430172,0.735182228401,-5.36847621692,-3.29747181888,2.50382062518,3.57641803586,-4.00716306193,-1.54720353273,3.82851739979,-2.2320546698,-6.65545330555,3.29465940321,1.74768202311,-1.07074699045,0.549218360679,-0.510414241046,0.0580798886553,-0.431190309585,1.06894037588
2.01875833877,-6.43344309682,1.6015809589,-0.508756255438,-1.2416810853,2.85879985887,-1.9955540213,5.9661869283,2.70284028144,3.17603072818,0.656679416297,-5.57135311673,1.26049541943,-3.9367388045,2.09918038978,-1.27131002333,0.367914127272,1.11315231011,1.78557601799,-7.12116031456,0.736256847118,0.736833971309,-5.38123059435,-3.30637268833,2.50854786369,3.5860424407,-4.01796605924,-1.55127380821,3.83654308811,-2.23889236093,-6.67753237525,3.30204708401,1.74852189869,-1.08023641174,0.54755152056,-0.508707568479,0.0623121551791,-0.423476861982,1.07029776406
2.02256407855,-6.44851069614,1.61568042917,-0.51610100533,-1.24289408244,2.8670426819,-2.00087577008,5.98545151248,2.71096762862,3.18713794272,0.661679184926,-5.57873405264,1.2631494294,-3.94465788546,2.11646698464,-1.27470752525,0.372494657033,1.11995798947,1.7868238323,-7.14053595254,0.740826687645,0.738491581946,-5.39387911353,-3.31521365562,2.51321452103,3.59557341176,-4.02870147544,-1.55530116206,3.84447773196,-2.2457280658,-6.69947460915,3.30939319726,1.74931619852,-1.08985279668,0.545923921807,-0.506982827215,0.0665660754564,-0.41571477815,1.07175707402
2.02633326022,-6.46344538654,1.62977098622,-0.523417462688,-1.24409378539,2.87524692046,-2.00618528312,6.00457167953,2.71912436096,3.1982361571,0.666704172854,-5.58610349433,1.26573745932,-3.95249835884,2.13376527856,-1.27805419769,0.377081409534,1.12677162111,1.78807582103,-7.15983369753,0.745378982005,0.740155199354,-5.40642418524,-3.32399522519,2.51782265077,3.60501215251,-4.03937072126,-1.55928629841,3.85232336338,-2.25256143243,-6.72128217315,3.31669740962,1.75006615663,-1.09959654765,0.544335581834,-0.505240804218,0.0708412166726,-0.407903396417,1.07331862748
2.03006653577,-6.47824993785,1.64385207421,-0.530705407898,-1.24528075496,2.88341286713,-2.01148344313,6.02354999896,2.72730985964,3.20932561767,0.671754475884,-5.59346312808,1.26826028708,-3.9602621056,2.15107525628,-1.28135027357,0.381674029251,1.13359309115,1.78933239185,-7.17905396483,0.749913756966,0.74182494982,-5.41886814692,-3.33271788475,2.52237424308,3.61435983687,-4.04997515973,-1.56322990487,3.8600819699,-2.25939211048,-6.74295718127,3.32395940364,1.75077297926,-1.10946804307,0.54278646851,-0.50348228616,0.0751371934521,-0.400042054464,1.07498271251
2.03376453683,-6.49292704794,1.65792313641,-0.537964628707,-1.24645553807,2.89154079768,-2.01677109404,6.04238898033,2.73552351097,3.22040656467,0.676830168546,-5.60081460321,1.27071867415,-3.96795094831,2.16839692993,-1.28459599506,0.386272156617,1.14042227043,1.7905939335,-7.19819714637,0.754431035978,0.743500947348,-5.43121326514,-3.34138210622,2.52687122663,3.62361761062,-4.06051610789,-1.56713265324,3.86775549561,-2.26621975147,-6.76450169729,3.33117887749,1.75143784545,-1.11946763832,0.541276502273,-0.501708059295,0.0794536659202,-0.392130089982,1.07674958541
2.0374278756,-6.50747934484,1.67198361612,-0.54519492047,-1.24761866818,2.89963097164,-2.0220490421,6.06109107511,2.74376470696,3.23147923334,0.681931304888,-5.60815953272,1.27311336613,-3.97556665282,2.18573033914,-1.28779161304,0.39087542831,1.14725901523,1.79186081656,-7.21726361171,0.758930839347,0.745183294105,-5.44346173796,-3.3499883465,2.53131547046,3.63278659267,-4.07099483847,-1.5709952001,3.87534584212,-2.27304400897,-6.78591773618,3.33835554464,1.75206190747,-1.12959566655,0.539805558202,-0.499918909333,0.0837903378035,-0.384166841304,1.0786194725
2.04105714587,-6.52190938894,1.68603295742,-0.552396086366,-1.24877066561,2.9076836329,-2.02731805703,6.07965867846,2.7520328459,3.242543855,0.687057919276,-5.61549949387,1.27544509307,-3.9831109299,2.20307555111,-1.29093738661,0.395483477557,1.15410316817,1.79313339412,-7.23625370913,0.763413184418,0.746872080843,-5.45561569721,-3.35853704831,2.53570878582,3.64186787631,-4.08141258156,-1.57481818744,3.88285486958,-2.27986453876,-6.80720726562,3.34548913359,1.75264629138,-1.1398524395,0.538373468033,-0.498115621317,0.0881469545704,-0.376151648012,1.08059257186
2.04465292387,-6.53621967497,1.70007060599,-0.5595679376,-1.24991203796,2.91569901023,-2.03257887307,6.0980941309,2.76032733287,3.25360065801,0.692210027162,-5.6228360288,1.27771456986,-3.99058543686,2.22043266055,-1.29403358267,0.400095934456,1.16095455895,1.79441200256,-7.25516776664,0.767878085767,0.748567387295,-5.46767721065,-3.36702864093,2.5400529279,3.6508625303,-4.09177052617,-1.57860224321,3.89028439756,-2.286680999,-6.82837220738,3.35257938752,1.75319209752,-1.15023824837,0.53698002214,-0.496298979496,0.0925233016137,-0.36808385153,1.08266905509
2.04821576918,-6.55041263401,1.71409600978,-0.566710293574,-1.25104328038,2.92367731779,-2.03783219014,6.11639971997,2.76864758025,3.26464986873,0.697387625856,-5.63017064518,1.2799224965,-3.99799177904,2.23780178962,-1.29708047539,0.404712426301,1.16781300515,1.79569696212,-7.27400609292,0.772325555396,0.750269282546,-5.47964828416,-3.37546354094,2.54434959755,3.65977159994,-4.10206982179,-1.58234798187,3.89763620601,-2.29349305042,-6.84941443868,3.35962606406,1.75370040101,-1.16075336465,0.535624971461,-0.49446976721,0.0969192024736,-0.359962795681,1.08484906894
2.05174622556,-6.56449063538,1.72810861971,-0.573822982051,-1.25216487599,2.93161875568,-2.04307867491,6.13457768173,2.77699300821,3.27569171232,0.702590695275,-5.63750481679,1.28206955837,-4.00533151141,2.25518308779,-1.30007834582,0.409332577923,1.17467831296,1.79698857762,-7.29276897832,0.776755602927,0.751977825381,-5.49153086376,-3.38384215286,2.5486004429,3.66859610804,-4.1123115798,-1.58605600492,3.90491203614,-2.30030035645,-6.8703357935,3.3666289349,1.75417225223,-1.17139804089,0.534308029373,-0.492628766769,0.101334517103,-0.351787827232,1.08713273701
2.05524482174,-6.57845598846,1.74210789022,-0.580905839296,-1.25327729614,2.93952351038,-2.04831896184,6.15263020228,2.78536304518,3.28672641359,0.707819198678,-5.64483998426,1.28415642638,-4.01260613998,2.27257673165,-1.30302748141,0.413956012034,1.18155027793,1.79828713905,-7.31145669576,0.781168235809,0.753693064621,-5.50332683761,-3.39216486986,2.552807061,3.67733705581,-4.12249687499,-1.58972690139,3.91211359129,-2.30710258335,-6.89113806388,3.37358778556,1.75460867732,-1.18217251154,0.533028873524,-0.490776759341,0.105769140175,-0.343558296408,1.08952016133
2.05871207219,-6.59231094443,1.7560932799,-0.587958710196,-1.25438100073,2.94739175523,-2.05355365429,6.17055941919,2.79375712831,3.29775419766,0.713073083394,-5.65217755564,1.28618375714,-4.01981712331,2.28998292468,-1.30592817558,0.418582349579,1.18842868566,1.79959292216,-7.33006950165,0.785563459515,0.75541503943,-5.51503803792,-3.40043207435,2.55697099927,3.68599542374,-4.13262674688,-1.59336124831,3.91924253777,-2.31389940035,-6.91182300111,3.38050241504,1.7550106786,-1.19307699373,0.53178714761,-0.488914524843,0.110222999436,-0.335273557379,1.09201142391
2.06214847784,-6.60605769801,1.77006425195,-0.594981448373,-1.25547643856,2.95522365086,-2.05878332556,6.18836742287,2.80217470387,3.30877529069,0.718352281522,-5.6595189071,1.28815219312,-4.02696587385,2.30740189699,-1.30878072733,0.423211210082,1.19531331248,1.80090618903,-7.34860763676,0.789941277741,0.757143779606,-5.52666624286,-3.40864413858,2.56109375709,3.69457217237,-4.14270220109,-1.59695961116,3.92630050572,-2.3206904798,-6.93239231697,3.38737263555,1.75537923513,-1.20411168806,0.530582463103,-0.487042841847,0.114696054093,-0.326932968732,1.09460658828
2.06555452681,-6.61969838907,1.78402027472,-0.601973916275,-1.25656404762,2.96301934563,-2.06400851993,6.20605625789,2.81061522764,3.31978992044,0.723656710628,-5.66686538364,1.29006236266,-4.03405375939,2.32483390498,-1.31158544083,0.427842212001,1.20220392618,1.80222718862,-7.36707132705,0.794301692605,0.758879305856,-5.53821317829,-3.41680142519,2.56517678716,3.703068243,-4.15272421063,-1.60052254432,3.93328908987,-2.32747549725,-6.95284768482,3.39419827215,1.75571530308,-1.21527677935,0.529414400927,-0.485162487475,0.119188293256,-0.318535893907,1.09730570096
2.068930695,-6.63323510421,1.79796082209,-0.60893598526,-1.25764425534,2.97077897604,-2.06922975367,6.22362792425,2.81907816532,3.33079831684,0.728986274415,-5.67421829972,1.29191488008,-4.04108210436,2.342279231,-1.31434262505,0.432474973077,1.20910028653,1.8035561573,-7.38546078454,0.798644704841,0.760621630057,-5.54968051958,-3.42490428776,2.56922149696,3.71148455839,-4.16269371712,-1.60405059143,3.94020985035,-2.33425413157,-6.97319074077,3.40097916252,1.75601981624,-1.2265724374,0.528282513086,-0.483274237318,0.123699734415,-0.310081701613,1.10010879288
2.07227744681,-6.64666987828,1.81188537389,-0.615867535664,-1.25871747895,2.97850266709,-2.07444751609,6.24108437859,2.82756299286,3.34180071248,0.734340863383,-5.68157893999,1.29371034569,-4.04805219116,2.35973818296,-1.31705259337,0.43710911068,1.21600214603,1.8048933193,-7.40377620807,0.802970313988,0.762370755495,-5.56106989322,-3.43295307132,2.57322925003,3.7198220234,-4.17261163206,-1.60754428585,3.94706431346,-2.34102606504,-6.99342308474,3.40771515656,1.75629368645,-1.23799881773,0.527186324238,-0.481378865356,0.128230421962,-0.301569766224,1.10301588079
2.07559523568,-6.6600046959,1.82579341627,-0.622768456858,-1.25978412569,2.98619053271,-2.07966227051,6.25842753537,2.8360691968,3.35279734303,0.739720355466,-5.68894855997,1.29544934576,-4.0549652614,2.37721109393,-1.31971566325,0.44174424215,1.22290925039,1.80623888725,-7.42201778411,0.807278518574,0.764126677091,-5.57238287852,-3.44094811282,2.57720136735,3.72808152552,-4.18247883792,-1.61100415097,3.95385397242,-2.34779098346,-7.0135462815,3.41440611618,1.75653780404,-1.24955606227,0.526125333215,-0.479477143883,0.132780425757,-0.292999468144,1.10602696858
2.07888450469,-6.6732414928,1.83968444203,-0.629638647293,-1.26084459316,2.99384267607,-2.08487445524,6.27565926798,2.84459627457,3.36378844767,0.745124616657,-5.69632838679,1.29713245255,-4.06182251722,2.3946983217,-1.32233215587,0.446379985132,1.2298213392,1.80759306257,-7.44018568749,0.811569316296,0.765889381622,-5.58362100914,-3.44888974157,2.58113912855,3.73626393545,-4.19229618934,-1.6144307006,3.96058028808,-2.35454857622,-7.03356186167,3.42105191491,1.75675303828,-1.26124430011,0.525099014502,-0.477569843445,0.137349839735,-0.284370194147,1.10914204861
2.08214568709,-6.68638215726,1.85355795088,-0.636478014541,-1.26189926951,3.00145918994,-2.09008448456,6.29278140983,2.85314373477,3.37477426941,0.750553501611,-5.70371961987,1.29876022422,-4.06862512244,2.4122002483,-1.32490239585,0.451015957903,1.2367381464,1.80895603593,-7.45828008212,0.815842704189,0.767658847915,-5.59478577466,-3.45677827973,2.58504377312,3.74437010759,-4.20206451417,-1.61782443933,3.96724468967,-2.36129853637,-7.05347132272,3.42765243767,1.75694023776,-1.27306364813,0.524106819654,-0.47565773279,0.141938780557,-0.275681337703,1.11236110296
2.08537920684,-6.69942853144,1.86741344972,-0.643286475318,-1.2629485338,3.00904015706,-2.09529274967,6.30979575541,2.86171109745,3.38575505534,0.756006854231,-5.71112343167,1.30033320481,-4.07537420375,2.42971727953,-1.3274267109,0.455651779693,1.24365940083,1.81032798763,-7.47630112174,0.82009867879,0.769435047035,-5.60587862201,-3.46461404267,2.58891650165,3.75240088049,-4.21178461455,-1.6211858628,3.97384857546,-2.36804056071,-7.0732761299,3.43420758039,1.7571002309,-1.2850142117,0.523148178672,-0.473741578816,0.146547386303,-0.26693229927,1.11568410463
2.08858547907,-6.71238241261,1.88125045289,-0.650063955511,-1.26399275616,3.01658565038,-2.10049961961,6.32670406126,2.87029789435,3.39673105698,0.76148450824,-5.71854096836,1.30185192413,-4.08207085189,2.44724984448,-1.3299054316,0.460287070992,1.25058482676,1.81170908801,-7.49424895057,0.824337236298,0.771217942466,-5.61690095695,-3.47239733939,2.59275847693,3.76035707729,-4.22145726793,-1.62451545807,3.98039331345,-2.37477434981,-7.09297771718,3.44071724977,1.75723382627,-1.29709608532,0.52222250132,-0.471822146543,0.151175815205,-0.258122486574,1.11911101872
2.09176491056,-6.72524555446,1.89506848233,-0.656810390181,-1.26503229815,3.02409573345,-2.10570544218,6.34350804698,2.87890366909,3.40770253038,0.766986287724,-5.72597335063,1.30331689772,-4.08871612277,2.46479839497,-1.33233889106,0.464921453847,1.25751414432,1.8130994978,-7.51212370396,0.828558372713,0.773007490271,-5.62785414545,-3.4801284729,2.59657082504,3.76823950607,-4.23108322803,-1.62781370386,3.98688024207,-2.38149960811,-7.11257748811,3.44718136295,1.75734181306,-1.30930935322,0.521329178402,-0.469900199082,0.155824244423,-0.249251314856,1.12264180358
2.09491790021,-6.73801966826,1.90886706779,-0.66352572358,-1.26606751292,3.03157046065,-2.11091054484,6.36020939613,2.8875279774,3.41866973636,0.772512007672,-5.73342167434,1.30472862672,-4.09531103853,2.48236340507,-1.33472742472,0.469554552152,1.26444706997,1.81449936845,-7.52992550906,0.832762083982,0.774803639249,-5.63873951498,-3.48780774053,2.60035463646,3.77604896028,-4.2406632258,-1.6310810709,3.99331067078,-2.38821604394,-7.13207681668,3.45359984721,1.75742496145,-1.32165409,0.520467582984,-0.467976497625,0.160492868864,-0.240318207107,1.12627641185
2.0980448394,-6.75070642402,1.92264574696,-0.670209909139,-1.26709874553,3.0390098775,-2.11611523558,6.37680975714,2.89617038727,3.4296329406,0.778061474485,-5.74088701129,1.30608759777,-4.10185658865,2.49994537051,-1.33707137008,0.474185991921,1.27138331697,1.81590884246,-7.54765448544,0.836948366125,0.776606331077,-5.64955835588,-3.49543543433,2.60411096708,3.78378621903,-4.25019797036,-1.63431802217,3.99968588074,-2.39492336957,-7.15147704818,3.45997263967,1.75748402304,-1.33413036122,0.519637071571,-0.466051801434,0.165181900031,-0.231322594279,1.13001479157
2.10114611241,-6.76330745166,1.93640406558,-0.676862909472,-1.26812633318,3.04641402092,-2.12131980377,6.39331074418,2.90483047912,3.44059241374,0.783634486473,-5.74837040993,1.3073942829,-4.10835373094,2.51754480819,-1.33937106653,0.478815401547,1.27832259572,1.8173280537,-7.56531074563,0.841117215352,0.778415500445,-5.66031192259,-3.50301184133,2.60784083917,3.79145204739,-4.25968814986,-1.63752501315,4.00600712543,-2.40162130124,-7.17077949999,3.46629968699,1.75751973121,-1.34673822393,0.518836985233,-0.46412686785,0.16989156493,-0.222263915479,1.13385688711
2.10422209683,-6.77582434208,1.95014157758,-0.683484696356,-1.2691506054,3.05378291948,-2.12652452103,6.409713938,2.91350784593,3.45154843148,0.789230834336,-5.7558728961,1.30864913945,-4.11480339257,2.53516225556,-1.34162685509,0.483442412059,1.28526461421,1.81875712766,-7.58289439578,0.84526862818,0.780231075183,-5.67100143486,-3.51053724389,2.61154524239,3.7990471967,-4.26913443233,-1.64070249209,4.01227563124,-2.40830955917,-7.18998546234,3.4725809451,1.7575328015,-1.35947772724,0.518066650689,-0.462202452307,0.174622104994,-0.213141618137,1.13780264019
2.10727316385,-6.78825864819,1.96385784512,-0.690075250723,-1.27017188436,3.06111659366,-2.13172964202,6.42602088674,2.92220209334,3.46250127451,0.794850301621,-5.76339547373,1.30985260987,-4.12120647106,2.55279827013,-1.34383907826,0.488066657345,1.29220907834,1.82019618175,-7.60040553613,0.849402601525,0.782052976377,-5.68162807893,-3.51801191994,2.61522513471,3.80657240482,-4.27853746654,-1.64385090025,4.01849259809,-2.41498786762,-7.20909619912,3.47881637888,1.75752393202,-1.37234891285,0.517325381347,-0.460279308359,0.179373775065,-0.203955158166,1.14185199076
2.11029967862,-6.800611886,1.97755243867,-0.696634562636,-1.27119048508,3.06841505607,-2.13693540523,6.44223310672,2.93091283977,3.47345122863,0.800492665168,-5.7709391256,1.31100512169,-4.12756383519,2.57045342885,-1.34600807982,0.492687774385,1.2991556923,1.82164532553,-7.61784426159,0.853519132799,0.783881118474,-5.6921930087,-3.52543614331,2.61888144327,3.81402839636,-4.28789788278,-1.64697067215,4.02465919999,-2.42165595488,-7.22811294856,3.48500596186,1.75749380377,-1.38535181555,0.516612478288,-0.458358187711,0.184146842402,-0.194704000096,1.14600487794
2.11330200056,-6.81288553553,1.99122493704,-0.703162631266,-1.27220671563,3.07567831166,-2.1421420338,6.45835208319,2.93963971649,3.48439858463,0.806157695532,-5.77850481403,1.31210708732,-4.13387632599,2.58812832756,-1.34813420471,0.497305403449,1.30610415889,1.82310466093,-7.63521066227,0.85761821999,0.785715409387,-5.7026973468,-3.53281018394,2.6225150653,3.82141588292,-4.29721629361,-1.65006223574,4.03077658563,-2.42831355329,-7.24703692395,3.49114967598,1.75744308105,-1.39848646368,0.515927231221,-0.456439840271,0.188941585727,-0.1853876172,1.15026124078
